/*
 * Copyright (c) 2025 EdgeImpulse Inc.
 *
 * Generated by Edge Impulse and licensed under the applicable Edge Impulse
 * Terms of Service. Community and Professional Terms of Service
 * (https://edgeimpulse.com/legal/terms-of-service) or Enterprise Terms of
 * Service (https://edgeimpulse.com/legal/enterprise-terms-of-service),
 * according to your product plan subscription (the “License”).
 *
 * This software, documentation and other associated files (collectively referred
 * to as the “Software”) is a single SDK variation generated by the Edge Impulse
 * platform and requires an active paid Edge Impulse subscription to use this
 * Software for any purpose.
 *
 * You may NOT use this Software unless you have an active Edge Impulse subscription
 * that meets the eligibility requirements for the applicable License, subject to
 * your full and continued compliance with the terms and conditions of the License,
 * including without limitation any usage restrictions under the applicable License.
 *
 * If you do not have an active Edge Impulse product plan subscription, or if use
 * of this Software exceeds the usage limitations of your Edge Impulse product plan
 * subscription, you are not permitted to use this Software and must immediately
 * delete and erase all copies of this Software within your control or possession.
 * Edge Impulse reserves all rights and remedies available to enforce its rights.
 *
 * Unless required by applicable law or agreed to in writing, the Software is
 * distributed on an "AS IS" BASIS, WITHOUT WARRANTIES OR CONDITIONS OF ANY KIND,
 * either express or implied. See the License for the specific language governing
 * permissions, disclaimers and limitations under the License.
 */
// Generated on: 01.03.2025 03:17:17

#include <stdio.h>
#include <stdlib.h>
#include "edge-impulse-sdk/tensorflow/lite/c/builtin_op_data.h"
#include "edge-impulse-sdk/tensorflow/lite/c/common.h"
#include "edge-impulse-sdk/tensorflow/lite/micro/micro_mutable_op_resolver.h"
#include "edge-impulse-sdk/porting/ei_classifier_porting.h"

#if EI_CLASSIFIER_PRINT_STATE
#if defined(__cplusplus) && EI_C_LINKAGE == 1
extern "C" {
    extern void ei_printf(const char *format, ...);
}
#else
extern void ei_printf(const char *format, ...);
#endif
#endif

#define STRINGIZE(x) #x
#define STRINGIZE_VALUE_OF(x) STRINGIZE(x)

#if defined (__GNUC__)  /* GNU compiler */
#define ALIGN(X) __attribute__((aligned(X)))
#define DEFINE_SECTION(x) __attribute__((section(x)))
#elif defined (_MSC_VER)
#define ALIGN(X) __declspec(align(X))
#elif defined (__TASKING__) /* TASKING Compiler */
#define ALIGN(X) __align(X)
#define DEFINE_SECTION(x) __attribute__((section(x)))
#elif defined (__ARMCC_VERSION) /* Arm Compiler */
#define ALIGN(X) __ALIGNED(x)
#define DEFINE_SECTION(x) __attribute__((section(x)))
#elif defined (__ICCARM__) /* IAR Compiler */
#define ALIGN(x) __attribute__((aligned(x)))
#define DEFINE_SECTION(x) __attribute__((section(x)))
#elif defined (__clang__) /* LLVM/Clang Compiler */
#define ALIGN(X) __ALIGNED(x)
#define DEFINE_SECTION(x) __attribute__((section(x)))
#endif

#if defined(EI_MODEL_SECTION) && (defined(__GNUC__) || defined(__clang__))
#define MODEL_SECTION(X) __attribute__((section(STRINGIZE_VALUE_OF(X))))
#else
#define MODEL_SECTION(X)
#endif

#ifndef EI_MAX_SCRATCH_BUFFER_COUNT
#ifndef CONFIG_IDF_TARGET_ESP32S3
#define EI_MAX_SCRATCH_BUFFER_COUNT 14
#else
#define EI_MAX_SCRATCH_BUFFER_COUNT 28
#endif // CONFIG_IDF_TARGET_ESP32S3
#endif // EI_MAX_SCRATCH_BUFFER_COUNT

#ifndef EI_MAX_OVERFLOW_BUFFER_COUNT
#define EI_MAX_OVERFLOW_BUFFER_COUNT 10
#endif // EI_MAX_OVERFLOW_BUFFER_COUNT

using namespace tflite;
using namespace tflite::ops;
using namespace tflite::ops::micro;

namespace {

#if defined(EI_CLASSIFIER_ALLOCATION_STATIC_HIMAX) || defined(EI_CLASSIFIER_ALLOCATION_STATIC_HIMAX_GNU)
constexpr int kTensorArenaSize = 74400;
#else
constexpr int kTensorArenaSize = 73376;
#endif

#if defined(EI_CLASSIFIER_ALLOCATION_STATIC)
#if defined (EI_TENSOR_ARENA_LOCATION)
uint8_t tensor_arena[kTensorArenaSize] ALIGN(16) DEFINE_SECTION(STRINGIZE_VALUE_OF(EI_TENSOR_ARENA_LOCATION));
#else
uint8_t tensor_arena[kTensorArenaSize] ALIGN(16);
#endif
#elif defined(EI_CLASSIFIER_ALLOCATION_STATIC_HIMAX)
#pragma Bss(".tensor_arena")
uint8_t tensor_arena[kTensorArenaSize] ALIGN(16);
#pragma Bss()
#elif defined(EI_CLASSIFIER_ALLOCATION_STATIC_HIMAX_GNU)
uint8_t tensor_arena[kTensorArenaSize] ALIGN(16) __attribute__((section(".tensor_arena")));
#else
#define EI_CLASSIFIER_ALLOCATION_HEAP 1
uint8_t* tensor_arena = NULL;
#endif

static uint8_t* tensor_boundary;
static uint8_t* current_location;

template <int SZ, class T> struct TfArray {
  int sz; T elem[SZ];
};

enum used_operators_e {
  OP_CONV_2D, OP_DEPTHWISE_CONV_2D, OP_PAD, OP_ADD, OP_SOFTMAX,  OP_LAST
};

struct TensorInfo_t { // subset of TfLiteTensor used for initialization from constant memory
  TfLiteAllocationType allocation_type;
  TfLiteType type;
  void* data;
  TfLiteIntArray* dims;
  size_t bytes;
  TfLiteQuantization quantization;
};

typedef struct {
  TfLiteTensor tensor;
  int16_t index;
} TfLiteTensorWithIndex;

typedef struct {
  TfLiteEvalTensor tensor;
  int16_t index;
} TfLiteEvalTensorWithIndex;

TfLiteContext ctx{};
static const int MAX_TFL_TENSOR_COUNT = 4;
static TfLiteTensorWithIndex tflTensors[MAX_TFL_TENSOR_COUNT];
static const int MAX_TFL_EVAL_COUNT = 4;
static TfLiteEvalTensorWithIndex tflEvalTensors[MAX_TFL_EVAL_COUNT];
TfLiteRegistration registrations[OP_LAST];

namespace g0 {
const TfArray<4, int> tensor_dimension0 = { 4, { 1,48,48,1 } };
const TfArray<1, float> quant0_scale = { 1, { 0.0039215688593685627, } };
const TfArray<1, int> quant0_zero = { 1, { -128 } };
const TfLiteAffineQuantization quant0 = { (TfLiteFloatArray*)&quant0_scale, (TfLiteIntArray*)&quant0_zero, 0 };
const MODEL_SECTION(EI_MODEL_SECTION) ALIGN(16) int32_t tensor_data1[4*2] = { 
  0, 0, 
  0, 1, 
  0, 1, 
  0, 0, 
};
const TfArray<2, int> tensor_dimension1 = { 2, { 4,2 } };
const MODEL_SECTION(EI_MODEL_SECTION) ALIGN(16) int32_t tensor_data2[4] = { 23642, -34255, -34559, -32006, };
const TfArray<1, int> tensor_dimension2 = { 1, { 4 } };
const TfArray<4, float> quant2_scale = { 4, { 0.00015195361629594117, 0.0001359620364382863, 0.00013817744911648333, 0.00013923969527240843, } };
const TfArray<4, int> quant2_zero = { 4, { 0,0,0,0 } };
const TfLiteAffineQuantization quant2 = { (TfLiteFloatArray*)&quant2_scale, (TfLiteIntArray*)&quant2_zero, 0 };
const MODEL_SECTION(EI_MODEL_SECTION) ALIGN(16) int8_t tensor_data3[4*1*1*32] = { 
  /* [0][0][][] */ 72,-30,-63,-56,110,-20,16,-44,102,-4,127,90,-56,-21,39,14,20,-22,-122,34,2,107,-54,108,5,6,20,68,92,-48,44,-6, 
  /* [1][0][][] */ 66,84,-80,-6,-40,46,126,48,-43,-75,-91,33,100,-51,115,-120,127,-109,29,-56,11,-83,-78,-13,5,-84,66,-78,-41,-103,-26,-20, 
  /* [2][0][][] */ -23,116,30,90,-28,-2,103,47,-78,-127,93,-57,-83,88,-106,75,58,65,91,-67,-10,28,-21,-24,40,-37,94,-116,-14,27,70,78, 
  /* [3][0][][] */ 81,-71,83,14,-13,115,30,-3,3,-107,37,119,85,-8,-127,-21,116,-92,120,0,-118,-11,4,-21,99,-4,-103,87,-79,121,36,61, 
};
const TfArray<4, int> tensor_dimension3 = { 4, { 4,1,1,32 } };
const TfArray<4, float> quant3_scale = { 4, { 0.0034808130003511906, 0.0031144923996180296, 0.0031652410980314016, 0.0031895739957690239, } };
const TfArray<4, int> quant3_zero = { 4, { 0,0,0,0 } };
const TfLiteAffineQuantization quant3 = { (TfLiteFloatArray*)&quant3_scale, (TfLiteIntArray*)&quant3_zero, 0 };
const MODEL_SECTION(EI_MODEL_SECTION) ALIGN(16) int32_t tensor_data4[32] = { 242, 674, -131, 609, -633, 248, 400, 412, -439, 586, 636, 343, 108, 200, 288, 18, 440, -200, 508, -161, -406, 1080, -417, -204, 365, -484, 785, 435, -378, -201, -660, 585, };
const TfArray<1, int> tensor_dimension4 = { 1, { 32 } };
const TfArray<32, float> quant4_scale = { 32, { 3.1805266189621761e-05, 3.6265522794565186e-05, 3.3094846003223211e-05, 3.4979399060830474e-05, 3.3871765481308103e-05, 3.3468812034698203e-05, 3.5628243495011702e-05, 3.730998287210241e-05, 3.4222997783217579e-05, 4.3260337406536564e-05, 3.5086384741589427e-05, 3.3198983146576211e-05, 3.6152789107291028e-05, 3.6786670534638688e-05, 3.9616534195374697e-05, 3.4107910323655233e-05, 3.4991280699614435e-05, 3.3746462577255443e-05, 3.2526259019505233e-05, 3.9395687053911388e-05, 3.233394818380475e-05, 3.5746263165492564e-05, 3.3565349440323189e-05, 3.3787844586186111e-05, 3.2859603379620239e-05, 3.3574968256289139e-05, 3.6613346310332417e-05, 3.9530474168714136e-05, 3.2498512155143544e-05, 3.0947434424888343e-05, 3.5120057873427868e-05, 3.526249565766193e-05, } };
const TfArray<32, int> quant4_zero = { 32, { 0,0,0,0,0,0,0,0,0,0,0,0,0,0,0,0,0,0,0,0,0,0,0,0,0,0,0,0,0,0,0,0 } };
const TfLiteAffineQuantization quant4 = { (TfLiteFloatArray*)&quant4_scale, (TfLiteIntArray*)&quant4_zero, 0 };
const MODEL_SECTION(EI_MODEL_SECTION) ALIGN(16) int8_t tensor_data5[32*1*1*96] = { 
  /* [0][0][][] */ -33,-50,114,10,109,-7,-91,-114,68,-100,-112,9,66,12,-32,53,-52,-26,-76,-59,-69,-105,-1,122,-125,14,90,-50,122,5,-19,-81,98,-60,-95,69,-112,-112,-101,38,92,-92,-121,114,65,-127,107,-40,22,-63,-36,94,-78,-38,-93,121,25,78,123,-122,-77,99,-51,53,-9,24,78,106,63,100,99,-116,114,-125,46,98,-110,20,-75,24,57,22,67,-2,-67,-38,-83,104,14,90,-11,-114,23,75,39,5, 
  /* [1][0][][] */ -48,44,-51,7,-27,78,44,27,99,-105,-80,116,71,-19,34,80,102,-43,34,120,-30,-4,46,26,32,18,-26,109,9,18,111,-54,56,109,-7,35,52,59,8,-67,-48,19,-4,-76,-26,53,-18,-39,-38,-81,127,71,25,90,-62,-44,37,101,54,98,-43,120,-54,-64,-40,43,86,50,111,39,26,22,-96,75,-30,56,87,-50,-23,83,-62,91,-41,-117,37,121,-64,-48,84,89,101,33,81,100,42,-6, 
  /* [2][0][][] */ 44,34,-71,84,-29,-70,89,103,-107,81,-47,96,85,-21,87,-108,-59,-29,31,60,-95,-10,116,15,-36,73,104,9,-69,88,70,94,-82,-27,-94,-121,-91,87,105,-28,-124,-80,-19,-4,-85,124,-39,-78,99,31,80,-100,-57,60,17,15,-86,98,-66,-1,-14,59,-31,66,83,45,58,93,-99,55,2,-81,30,-88,37,34,-56,-32,15,24,24,-105,-22,-34,-4,-100,-28,-21,89,127,-20,-5,-44,-87,-63,-86, 
  /* [3][0][][] */ 81,9,55,-13,-66,36,-98,60,66,3,86,0,101,104,83,27,96,82,-50,25,127,-77,-50,-126,-21,-110,-66,110,46,-81,104,10,-73,-25,-11,-11,-88,-18,62,39,-22,-70,-83,18,75,50,-37,-64,31,-81,57,9,112,29,100,-93,-112,-108,-109,-37,-79,42,-28,87,71,-27,-43,-19,-19,-57,13,110,32,-114,72,-36,37,71,112,-44,-73,-106,48,84,42,51,-43,-92,-70,60,15,-104,97,-81,-87,41, 
  /* [4][0][][] */ 43,93,-12,44,-36,-33,23,8,46,81,-17,45,18,-47,-22,-77,-35,-13,-77,6,96,-102,78,17,-25,-13,54,-69,-58,25,-74,-62,60,105,7,-113,-58,-13,-125,41,-59,-69,-80,-100,25,93,25,45,16,-51,-26,-85,-97,35,-99,11,25,-104,19,5,-3,-84,-49,-74,-56,46,-10,-47,17,-109,-109,-91,-65,28,90,42,51,-30,-17,-68,-4,-54,-106,-22,-10,59,83,-11,-127,-82,32,36,20,87,-103,-22, 
  /* [5][0][][] */ 104,-87,83,83,45,-108,31,59,111,-114,3,-59,29,101,44,40,71,70,-84,104,38,59,21,-23,-120,-64,-8,-89,53,39,20,-93,-35,9,-66,13,-110,-58,52,31,-80,-52,15,107,-23,23,29,-59,-103,100,24,27,42,29,46,-15,95,57,-54,-40,40,-58,45,-71,-30,111,-23,35,82,1,111,-64,-42,53,-24,-66,16,-43,14,82,106,42,-3,108,-81,90,2,41,59,-127,121,98,-13,27,78,-114, 
  /* [6][0][][] */ 24,-45,124,83,-71,-58,6,81,-5,-81,25,-63,92,56,121,-99,42,-1,-6,104,-62,-111,110,58,-82,-77,6,-57,-26,-94,65,-65,-87,-105,-40,-97,-5,36,-81,79,99,69,32,1,-96,114,-77,-38,-106,17,-7,-46,72,-40,108,-19,14,2,-76,127,-77,16,69,-55,-34,72,109,-38,88,10,-96,12,64,-82,-72,-28,-76,-107,-46,-22,45,-16,40,-30,-63,-79,-31,-76,81,93,100,27,-44,-56,93,-37, 
  /* [7][0][][] */ 113,71,-22,-33,-62,111,-17,16,127,-1,-79,31,60,-77,53,81,54,19,-7,112,63,34,1,82,-73,91,50,57,-74,110,-11,40,23,30,63,96,-90,73,7,-22,93,-71,89,77,56,11,101,-96,46,-59,-92,-53,-16,91,28,32,108,-74,-7,-41,19,7,81,-102,-55,-42,73,31,-90,32,68,86,88,3,67,63,-51,50,-80,52,92,-29,-17,-83,88,40,-101,102,74,14,90,68,-48,-25,5,-67, 
  /* [8][0][][] */ 4,26,-56,-96,54,24,-79,-31,2,38,35,86,-5,-51,-94,-82,-74,92,-68,10,22,-34,74,104,-121,89,36,69,-74,10,-98,110,90,-40,40,-10,110,2,-28,65,78,95,-123,-127,-19,-38,-34,101,21,-98,-72,-9,-71,-16,-38,-116,42,101,-93,93,103,35,39,103,-40,-53,-32,91,-94,42,27,-7,68,77,-1,16,-55,104,74,64,26,74,-116,-72,17,35,72,-50,30,-44,-94,94,-85,-110,-52,62, 
  /* [9][0][][] */ 2,32,95,48,75,-89,-28,-84,38,50,6,48,-20,-57,-82,-10,1,1,-63,-37,9,80,-57,-79,126,6,-16,30,1,-43,-55,79,58,2,29,-10,-29,45,3,-40,48,-34,55,-78,59,24,-78,72,42,-2,-52,-28,87,-62,-50,83,80,-46,41,-3,-76,81,83,-43,-52,5,85,38,-31,83,96,-51,8,107,-79,-58,-60,-69,-5,90,41,25,127,58,-33,-49,50,26,108,76,-19,89,93,-3,79,-1, 
  /* [10][0][][] */ -61,75,106,-57,-17,81,111,45,34,20,27,-79,95,86,-28,27,-56,60,-86,-51,-11,33,66,-85,33,54,-111,-112,-43,87,-84,-92,72,94,120,75,-37,13,-16,23,-41,127,-103,-31,-99,-45,-4,-43,-20,9,42,4,75,6,-58,-39,-99,-19,32,-42,4,68,103,56,121,-81,-77,-23,25,-13,-93,-58,84,62,-67,115,-24,43,81,38,90,5,65,107,-99,62,89,-4,47,26,8,-75,-48,-54,-45,-61, 
  /* [11][0][][] */ 123,19,-10,108,127,58,57,42,122,105,-79,126,5,-78,43,-64,-42,-88,70,51,49,90,27,-102,-112,-92,-3,78,91,7,27,-10,-82,-64,66,44,-55,68,-28,-46,-17,103,-93,16,-29,-58,-87,-95,88,107,105,44,-96,-73,30,38,-83,-46,-27,-100,-71,106,99,10,30,102,-50,40,100,56,-71,-62,54,110,-95,64,-59,49,-43,95,-113,-27,-83,-39,53,-64,27,-23,-107,-27,17,-92,-80,-31,-74,-50, 
  /* [12][0][][] */ 18,72,-54,-2,89,24,-31,24,-64,67,-13,30,-35,11,53,-77,-79,-18,-58,-72,33,-6,19,103,-66,-43,105,-87,93,21,-31,121,-71,-58,-36,13,9,-92,-20,52,120,34,-120,-29,-6,-83,-45,97,-30,-119,-73,96,35,17,-65,91,-24,-46,52,59,66,121,7,52,108,42,-46,117,61,95,48,76,88,99,-16,4,-24,48,-112,-102,-60,95,23,12,-33,42,63,104,-105,-127,83,52,101,-16,36,56, 
  /* [13][0][][] */ 100,-57,107,90,81,92,74,71,75,-117,12,-47,81,68,64,-25,-125,-81,-69,28,68,-26,107,-58,-73,28,3,18,-86,-76,76,26,21,94,-29,38,-83,-30,37,47,-66,79,-50,17,-44,41,1,-13,20,94,-27,-90,-88,20,90,-87,-42,17,-30,-65,-23,103,-71,17,-48,-63,-72,84,-32,-7,85,-8,-83,20,-58,-36,-104,54,85,-43,53,-86,86,18,-71,-98,69,127,-5,-36,-55,39,104,-39,50,-14, 
  /* [14][0][][] */ -40,-83,83,68,75,-25,-5,-93,-64,-21,63,85,-17,-62,-78,-73,-42,-38,13,26,-37,28,9,65,-85,-53,-26,26,-98,-103,-59,36,99,-11,-23,5,83,107,31,-84,-1,-89,44,81,61,-91,64,-75,127,44,66,44,95,-14,0,23,-42,16,60,83,-15,-62,-28,72,-78,-4,67,-89,-79,-71,-70,90,9,80,44,-57,47,-93,50,29,47,-15,-96,-25,-95,-75,-87,91,97,9,77,-30,82,89,-9,62, 
  /* [15][0][][] */ 17,-29,-27,80,94,-90,64,-98,52,-5,-63,9,102,4,-96,-110,84,4,-87,21,42,20,74,103,86,70,33,92,25,51,81,-102,0,5,-64,-2,-73,119,120,-73,25,127,-39,-30,20,-71,-39,-68,-14,-71,6,41,-88,-109,-53,-9,76,48,-41,119,-50,-73,-2,114,-27,94,-75,-1,-60,12,59,-70,12,-15,54,-107,-7,48,102,83,-72,69,-110,-47,-124,-41,-89,38,95,75,-111,-44,53,103,-93,118, 
  /* [16][0][][] */ -58,10,112,-52,50,120,-45,52,61,51,-92,88,-2,-41,-39,-48,115,86,66,72,121,85,-29,58,-38,58,-53,70,-92,27,52,23,-97,85,63,62,-24,47,-33,-58,36,-36,70,101,74,110,104,-8,-50,-106,17,119,-29,127,80,54,29,98,70,25,125,120,44,69,64,25,-25,101,55,107,-20,3,40,72,72,96,-1,101,-97,-6,23,-73,44,12,19,108,110,21,78,11,-4,120,77,-19,-67,18, 
  /* [17][0][][] */ 34,-116,31,82,-49,-120,-70,-105,34,-79,78,42,95,64,-119,46,28,48,114,113,-97,-11,8,-60,29,73,-85,25,112,-56,-37,72,-32,-28,31,29,-53,101,-96,-37,-101,-46,-13,-16,4,8,85,-114,81,119,-15,31,-26,69,98,-81,-111,82,-95,-120,28,-103,71,96,-91,-80,45,-108,-115,-1,101,23,10,-124,-73,63,113,-53,39,-55,12,-10,-73,-103,-121,67,74,-39,24,84,-93,-127,0,97,8,22, 
  /* [18][0][][] */ -89,111,127,-64,-6,-110,-103,25,9,77,-102,-40,-28,45,76,-48,29,-20,58,-15,120,-36,31,-81,32,-101,-5,121,35,50,4,52,50,-20,-104,-111,-25,34,-16,73,-37,2,-51,4,-107,29,29,3,17,-29,74,38,-104,3,19,99,-55,45,-14,-115,101,127,24,41,-70,-114,-20,103,82,-73,-60,123,-89,-54,-77,-96,65,57,13,-62,-50,-5,-19,-61,116,-27,81,87,-107,-62,-52,118,102,-46,52,-23, 
  /* [19][0][][] */ 19,23,67,36,50,-75,82,77,84,-38,26,-11,-82,33,-48,49,61,-91,127,47,-18,73,-47,10,68,-60,22,-60,-76,-104,-55,37,73,-71,30,0,8,-52,-47,-90,41,-96,-67,4,-79,25,71,-81,-21,37,-35,39,-27,10,5,-9,30,82,22,-25,43,-50,85,54,-62,-3,-25,-4,-8,45,69,-40,-54,-90,-50,-68,-23,-97,13,91,52,-99,-20,81,-75,-9,17,-7,82,24,-4,55,-25,97,63,-38, 
  /* [20][0][][] */ -17,70,68,95,-94,90,16,63,13,13,-91,7,-13,86,36,-80,-60,-44,-66,-40,20,-55,-84,-80,87,-77,-115,45,18,8,-42,113,103,41,-23,58,37,-26,-18,-120,-87,-37,-82,-113,-38,-67,-72,111,59,-127,-107,54,48,110,48,-9,108,71,103,94,111,-64,-76,-38,-31,-75,-58,10,-94,-86,-77,79,-73,-75,26,17,109,72,112,108,88,1,101,-8,57,116,-21,73,23,108,23,64,23,25,-2,8, 
  /* [21][0][][] */ 103,73,92,-65,99,-85,86,34,0,-48,-64,28,15,57,-36,-69,-100,-32,64,10,112,-23,83,-72,65,-59,-24,78,35,9,0,-23,19,27,-68,-89,109,122,-98,-35,-7,24,48,-9,-90,-63,-60,112,-27,-29,-3,83,49,59,-77,38,-35,56,-36,117,54,-76,20,5,85,31,-10,-56,-92,21,69,77,42,1,84,81,-105,-28,76,125,39,119,60,-43,37,-88,64,-60,-81,102,127,-109,-13,-46,58,-6, 
  /* [22][0][][] */ 27,-62,-81,-104,84,-63,105,57,-103,84,-82,-112,110,-121,-123,-94,33,80,-114,-70,82,-81,25,26,85,-10,-125,95,-68,-87,-74,-119,45,56,12,7,-3,-21,-66,-124,-4,-20,-6,90,50,-127,89,-31,-70,-86,-2,-23,-74,-100,-54,28,-17,-38,-28,-36,104,-85,-85,-124,-75,12,-123,-53,107,102,-31,-9,-75,57,60,-100,38,-59,58,88,101,-105,-85,-122,75,78,95,-38,-65,26,-74,55,16,16,-36,96, 
  /* [23][0][][] */ 55,-100,0,64,92,-124,1,-111,50,-83,83,75,8,-112,8,-51,81,-44,-95,94,83,-88,99,-42,-10,-14,71,12,65,36,65,-48,-39,34,12,31,95,19,-116,-4,-110,1,12,-123,-82,-102,109,23,71,-109,-93,-47,80,-71,-58,81,-67,-32,108,38,-126,-103,-62,-13,25,26,-127,-120,53,-13,110,-76,-15,0,-49,-97,35,-27,86,110,-55,-53,32,-47,87,-2,116,-33,-91,38,99,-16,104,-59,-31,104, 
  /* [24][0][][] */ -73,-47,-99,-69,-88,-115,-67,-85,74,124,93,53,127,70,-31,-113,-80,49,25,-48,110,-74,-51,-41,50,-30,87,64,115,67,9,-59,0,17,59,28,-49,-95,76,-16,-70,-100,95,15,33,-33,42,77,-95,-52,-24,13,80,72,84,-68,-21,88,32,3,104,5,44,104,-102,108,-39,-87,-98,57,-53,-19,-33,30,110,113,71,-85,-100,-76,-78,-94,-78,-116,8,72,-8,-95,29,-106,13,-77,-10,34,-98,26, 
  /* [25][0][][] */ -96,-67,-90,-20,84,-84,-115,46,37,-118,-49,14,64,-10,-121,-33,-84,52,31,-122,59,79,-21,-69,6,-61,-116,29,69,-102,30,107,87,-121,36,65,90,-70,-32,-28,-94,88,-116,-7,90,32,60,27,-114,86,-83,-6,34,-29,-73,2,-27,43,-116,67,111,34,43,37,-10,67,-27,-17,-102,-14,-34,-125,26,-120,64,12,63,66,6,12,40,41,-58,76,-86,-58,-114,-103,-32,-49,97,13,-127,-24,-28,-93, 
  /* [26][0][][] */ 61,-98,0,2,-78,-4,1,8,-74,-112,123,100,-60,-33,24,6,103,22,-66,-51,32,72,104,16,52,68,26,52,16,21,-64,6,-22,-43,-87,-81,-56,88,-23,96,-79,112,78,45,-61,89,-22,112,-32,36,21,114,30,-33,12,-93,108,65,50,49,14,-78,68,-5,127,-6,-34,68,-64,91,95,107,87,-96,-60,22,52,-106,-72,28,-7,87,94,-68,88,12,-39,30,-60,126,27,29,-45,126,70,87, 
  /* [27][0][][] */ 17,5,-51,-76,-95,-60,-54,2,35,98,33,-90,-14,59,81,-30,59,-11,71,-60,-66,24,-21,-15,-73,54,-86,-2,70,33,-27,-6,66,65,-62,-63,-73,-37,-91,84,-83,18,34,12,91,17,69,91,76,71,56,-65,-67,-77,2,-20,93,-13,-78,-75,-54,-49,-25,54,37,-35,-85,95,49,12,-90,24,60,-3,-1,-72,38,-44,88,94,85,-20,127,20,-64,-76,-21,14,-25,11,-24,-36,60,19,91,66, 
  /* [28][0][][] */ 87,-7,84,39,-125,-74,-108,-86,-41,-119,56,66,-91,-96,-2,98,91,110,-80,74,-31,18,-120,-79,-119,78,-96,-69,-83,-87,-9,-28,-107,10,77,69,16,-117,-51,25,103,38,-94,46,-117,-16,9,44,24,-72,-86,-36,-97,18,47,33,56,-21,78,49,-15,-54,-108,-3,53,70,-29,78,-90,26,-115,-48,66,43,-13,-112,-127,-61,-92,42,-86,-104,108,-22,57,-122,62,-88,-113,-72,-45,-78,-46,51,-104,-78, 
  /* [29][0][][] */ 62,51,58,-63,-101,6,-127,16,98,-15,-108,-123,116,-110,-47,-44,-106,114,35,-63,-79,-23,62,4,-45,8,-47,-31,-104,-1,101,-5,52,0,-77,-66,-11,107,-15,110,45,114,-72,93,4,114,-64,-25,20,-2,49,-118,71,-116,121,56,-121,67,-52,113,-123,106,-101,-58,-78,-70,69,103,106,-103,35,-83,122,80,73,30,127,-72,-24,52,-16,-97,-12,-81,70,126,43,99,-43,118,84,81,-102,18,-19,56, 
  /* [30][0][][] */ 17,-63,-70,22,-102,14,-69,-15,101,-26,-5,-53,-109,6,48,7,-15,31,80,-112,29,-106,-110,4,-107,14,-77,111,-18,-105,-95,-5,-94,-78,-127,-61,15,-28,-5,24,85,-78,-13,93,90,-52,90,54,-70,61,13,-101,88,-58,-21,88,-80,-62,-79,-60,-107,-14,-73,-31,-112,-91,-99,78,-69,94,33,-40,-95,94,35,-92,-65,-70,-73,-68,17,14,-102,-23,-109,19,-108,99,-38,-113,64,45,-44,-12,6,-80, 
  /* [31][0][][] */ 91,-81,52,108,56,57,-45,-74,-17,-24,-59,-89,108,-106,-33,127,-56,-89,40,61,76,48,-16,102,49,-106,48,47,-62,-55,63,112,16,31,-78,-2,100,-22,-44,-104,71,-46,-22,46,15,-35,-29,42,59,31,104,-16,-96,-49,-65,32,-106,76,15,127,-25,8,93,-57,79,118,-27,-63,84,-105,-106,23,-81,-55,22,19,-48,-57,66,107,-60,-30,65,81,68,103,-87,36,34,-34,-67,-49,23,113,-3,-20, 
};
const TfArray<4, int> tensor_dimension5 = { 4, { 32,1,1,96 } };
const TfArray<32, float> quant5_scale = { 32, { 0.0017004618421196938, 0.0019389286171644926, 0.0017694090493023396, 0.001870166277512908, 0.0018109468510374427, 0.0017894030315801501, 0.0019048565300181508, 0.001994770485907793, 0.0018297254573553801, 0.0023129049222916365, 0.0018758861115202308, 0.0017749767284840345, 0.0019329012138769031, 0.0019667916931211948, 0.0021180897019803524, 0.0018235723255202174, 0.0018708014395087957, 0.0018042474985122681, 0.0017390096327289939, 0.0021062821615487337, 0.001728727831505239, 0.0019111663568764925, 0.0017945643048733473, 0.001806459971703589, 0.0017568317707628012, 0.0017950786277651787, 0.0019575248006731272, 0.0021134885028004646, 0.0017375261522829533, 0.0016545980470255017, 0.0018776865908876061, 0.0018853018991649151, } };
const TfArray<32, int> quant5_zero = { 32, { 0,0,0,0,0,0,0,0,0,0,0,0,0,0,0,0,0,0,0,0,0,0,0,0,0,0,0,0,0,0,0,0 } };
const TfLiteAffineQuantization quant5 = { (TfLiteFloatArray*)&quant5_scale, (TfLiteIntArray*)&quant5_zero, 0 };
const MODEL_SECTION(EI_MODEL_SECTION) ALIGN(16) int32_t tensor_data6[96] = { 1969, -148, 3659, 6169, 4944, -3337, 4357, -1426, -2595, -783, 4713, -2302, 6295, 6453, 3314, 2996, -976, -623, -1752, 5822, 2802, -555, 2878, -539, -1382, 3829, 2213, 2546, 5878, 3791, 4862, 2032, 1643, 9022, 6007, 3706, -596, 4561, 2960, -6878, -230, 1326, 120, 2639, -1901, 634, -1572, 752, -10963, 2259, 1411, -3549, 7785, -928, 2266, 1896, 1370, 5086, -933, -1991, 367, 2930, 485, 4361, 6515, 5460, 4704, 8776, 7212, -885, 3884, 5493, 4425, -2220, 7331, 8365, 857, -4349, 662, 1388, 9117, 2376, -314, -3347, 1359, 807, 1812, -2944, 6275, -462, 4435, 1451, 140, -3765, -126, 2162, };
const TfArray<1, int> tensor_dimension6 = { 1, { 96 } };
const TfArray<96, float> quant6_scale = { 96, { 9.7040865512099117e-05, 0.00018388708122074604, 0.00016444748325739056, 0.00011917384836124256, 0.00012801121920347214, 0.00011273206473561004, 0.00013206010044086725, 0.00015792644990142435, 0.0001496888289693743, 0.00017148180631920695, 0.00013356535055208951, 0.00017911040049511939, 8.9111992565449327e-05, 9.0575318608898669e-05, 9.6014977316372097e-05, 0.00014126150927040726, 0.00012608396355062723, 0.00012736328062601388, 0.00015715901099611074, 0.00010658848623279482, 0.00015855580568313599, 0.00014608433411922306, 0.00012564145436044782, 0.00016787956701591611, 0.00014811432629358023, 0.00015848927432671189, 0.00011842593812616542, 0.00014600928989239037, 0.00011994095257250592, 0.00011168960190843791, 0.00010797749564517289, 0.00010550944716669619, 0.00017396833573002368, 7.2697024734225124e-05, 0.00010471072164364159, 0.00013279414270073175, 0.0001650674530537799, 0.00010861787450267002, 0.00012259215873200446, 7.3337032517883927e-05, 0.00017365482926834375, 0.00015459753922186792, 0.00022877559240441769, 0.00010878551256610081, 0.00013630995817948133, 0.00014596812252420932, 0.00016356700507458299, 0.00016882893396541476, 6.5088926930911839e-05, 0.0001161155232694, 0.00018431588250678033, 0.0001309975195908919, 9.6112642495427281e-05, 0.00016141386004164815, 0.00015290617011487484, 0.00013143171963747591, 0.00016348381177522242, 8.2706144894473255e-05, 0.00014679107698611915, 0.00014876363275106996, 0.00016096544277388602, 9.4519564299844205e-05, 0.00021848722826689482, 0.00014574172382708639, 0.00010666189336916432, 8.7995656940620393e-05, 8.7242689915001392e-05, 8.330104174092412e-05, 9.3532464234158397e-05, 0.0001528834254713729, 0.0001229708141181618, 0.00012983607302885503, 0.00010738654236774892, 0.00010586983262328431, 9.1251749836374074e-05, 9.6698553534224629e-05, 0.00011935283691855147, 0.00013625621795654297, 0.00013805461640004069, 0.00015115816495381296, 9.1717949544545263e-05, 0.00012187588436063379, 0.00019586960843298584, 0.00012657865590881556, 0.00016716448590159416, 0.00016035769658628851, 0.00014790252316743135, 0.00013291722279973328, 0.0001062406154233031, 0.00014147040201351047, 0.00013608289009425789, 0.00016698450781404972, 0.00013141107046976686, 0.00010916183236986399, 0.00021923615713603795, 0.00012587860692292452, } };
const TfArray<96, int> quant6_zero = { 96, { 0,0,0,0,0,0,0,0,0,0,0,0,0,0,0,0,0,0,0,0,0,0,0,0,0,0,0,0,0,0,0,0,0,0,0,0,0,0,0,0,0,0,0,0,0,0,0,0,0,0,0,0,0,0,0,0,0,0,0,0,0,0,0,0,0,0,0,0,0,0,0,0,0,0,0,0,0,0,0,0,0,0,0,0,0,0,0,0,0,0,0,0,0,0,0,0 } };
const TfLiteAffineQuantization quant6 = { (TfLiteFloatArray*)&quant6_scale, (TfLiteIntArray*)&quant6_zero, 0 };
const MODEL_SECTION(EI_MODEL_SECTION) ALIGN(16) int8_t tensor_data7[96*1*1*16] = { 
  /* [0][0][][] */ -14,106,-89,32,57,-32,94,76,-58,3,34,-99,80,127,-65,17, 
  /* [1][0][][] */ -25,-7,-49,-32,-2,40,24,-127,25,-53,-19,-46,-11,-40,-61,4, 
  /* [2][0][][] */ -27,-20,27,69,18,37,-102,127,-25,-3,79,-55,-16,-73,-49,74, 
  /* [3][0][][] */ 97,-85,77,-4,-6,-36,-41,127,-25,57,63,40,-4,54,19,6, 
  /* [4][0][][] */ -40,-20,-1,32,-77,12,-20,-127,-6,-21,39,-8,39,48,95,113, 
  /* [5][0][][] */ 127,26,-30,-26,-81,21,28,78,21,-12,59,94,113,21,-93,15, 
  /* [6][0][][] */ 24,-32,-57,-42,-74,6,-6,-43,-45,-43,-34,18,85,53,127,-14, 
  /* [7][0][][] */ -59,39,-37,-89,4,-62,-71,22,-98,47,-61,-57,-127,-43,6,104, 
  /* [8][0][][] */ 44,49,69,5,56,23,72,19,64,-29,41,7,-127,-28,-82,13, 
  /* [9][0][][] */ -37,65,31,-47,-26,-15,32,-18,-40,41,-37,11,44,127,20,25, 
  /* [10][0][][] */ 78,45,-40,61,-33,-18,45,-50,-67,-27,-62,-107,-127,-68,19,87, 
  /* [11][0][][] */ 53,10,56,5,-12,-28,9,105,-80,18,-30,5,-14,-7,57,127, 
  /* [12][0][][] */ -64,-14,-1,-7,35,-4,127,63,-68,28,9,-11,-19,83,-52,109, 
  /* [13][0][][] */ 9,56,22,44,102,30,104,106,-32,103,-82,-65,35,74,-127,-21, 
  /* [14][0][][] */ -120,127,1,-26,1,-2,66,5,-26,24,120,-3,-101,13,-57,61, 
  /* [15][0][][] */ -16,-18,-127,-38,76,-40,-82,-29,-18,-12,-18,-64,-10,-80,-55,47, 
  /* [16][0][][] */ 110,-10,4,-13,29,-32,46,-12,-33,10,127,56,38,-4,-43,29, 
  /* [17][0][][] */ 7,24,-28,-111,-11,-72,121,-127,-5,-28,-44,37,38,74,4,53, 
  /* [18][0][][] */ 17,127,-13,-56,60,-76,-16,-48,-47,122,-17,2,-32,51,-20,-21, 
  /* [19][0][][] */ -78,-115,115,-104,49,-127,31,-19,52,35,92,112,25,-22,65,-25, 
  /* [20][0][][] */ -21,104,54,-3,9,0,25,-22,61,-14,104,-23,-127,-34,-84,-2, 
  /* [21][0][][] */ -71,41,21,15,68,38,74,49,-127,55,-41,19,-23,16,-67,-21, 
  /* [22][0][][] */ 14,-73,38,13,23,-127,105,13,20,-43,-40,-75,40,-93,-54,-52, 
  /* [23][0][][] */ -54,-86,40,52,24,-20,24,-40,16,-40,80,9,12,61,68,127, 
  /* [24][0][][] */ 2,-3,23,84,40,13,-55,-127,66,15,-43,12,5,-1,-19,-27, 
  /* [25][0][][] */ -10,31,16,-45,-32,-2,8,-32,-23,63,-49,-14,40,127,28,6, 
  /* [26][0][][] */ -58,77,9,15,26,-81,3,-38,12,17,16,77,16,2,-81,127, 
  /* [27][0][][] */ -21,-127,-60,7,-61,97,-4,-57,23,-41,60,-33,22,-62,-113,-17, 
  /* [28][0][][] */ -33,6,45,79,25,16,-36,-127,-116,47,104,-9,72,15,-45,-24, 
  /* [29][0][][] */ -127,109,-22,-37,-26,27,-119,-71,-44,-40,1,1,10,-62,-111,59, 
  /* [30][0][][] */ 58,86,-58,77,-103,-98,-74,-12,-41,-7,5,-120,127,27,-9,95, 
  /* [31][0][][] */ 127,23,-53,-50,-63,25,108,33,-60,-29,72,57,42,33,-30,7, 
  /* [32][0][][] */ -27,-23,127,10,-23,69,66,21,-16,-7,-16,14,4,71,69,33, 
  /* [33][0][][] */ -8,35,-91,-56,-25,29,127,42,2,-6,28,-73,108,118,-59,62, 
  /* [34][0][][] */ -91,-24,101,26,20,-54,104,-10,-127,43,34,-48,49,67,-46,-34, 
  /* [35][0][][] */ -1,25,-49,8,-76,127,-26,-23,-12,114,4,90,-62,71,16,43, 
  /* [36][0][][] */ -6,-79,127,-44,-52,13,-44,-12,18,25,-53,75,-1,-77,-32,41, 
  /* [37][0][][] */ 73,-3,53,-34,106,-83,-44,37,-53,127,-54,4,-77,-54,99,-10, 
  /* [38][0][][] */ 53,38,21,-100,1,-53,-105,43,-77,56,-106,-58,-74,-127,-104,53, 
  /* [39][0][][] */ -84,24,-56,-41,-79,-81,73,13,-127,-41,26,89,33,-3,-10,54, 
  /* [40][0][][] */ 127,39,13,-117,-69,16,29,-44,-46,-39,-35,-71,20,53,28,59, 
  /* [41][0][][] */ 96,-68,-62,-42,-9,-4,-61,-19,56,-14,4,-62,127,-68,57,-34, 
  /* [42][0][][] */ -26,-97,-56,127,5,-117,-110,33,-2,6,19,67,-77,75,-73,8, 
  /* [43][0][][] */ -93,-38,-45,-127,-51,3,2,76,34,-124,-30,40,-16,-47,-30,95, 
  /* [44][0][][] */ -28,41,48,-35,-35,-20,39,101,101,-74,74,97,127,56,-17,6, 
  /* [45][0][][] */ 24,88,-91,93,127,-96,-37,-59,109,-73,76,-67,-32,-2,-79,71, 
  /* [46][0][][] */ -23,-32,12,-12,107,-16,38,25,-13,127,-30,-124,36,73,-57,81, 
  /* [47][0][][] */ 82,-46,-25,-10,79,-11,-44,-63,0,127,-33,32,-12,-96,-77,8, 
  /* [48][0][][] */ 13,28,-20,-127,-11,-55,114,-125,1,3,-40,46,53,68,8,37, 
  /* [49][0][][] */ -40,127,-76,35,53,-55,71,54,-29,31,50,-83,-31,84,112,-106, 
  /* [50][0][][] */ 11,46,-24,2,-127,-1,-70,-55,55,71,30,29,-38,-45,3,34, 
  /* [51][0][][] */ 127,-31,-52,-17,-51,90,-90,-44,48,-22,-37,68,-30,-70,-4,46, 
  /* [52][0][][] */ -19,-45,38,75,-44,-112,-127,2,-43,-47,-38,-72,11,-63,14,81, 
  /* [53][0][][] */ 31,112,55,-127,5,117,92,-16,2,-28,-14,-43,75,-127,3,63, 
  /* [54][0][][] */ 23,127,3,-26,1,-92,-105,58,4,-27,-41,125,74,81,15,62, 
  /* [55][0][][] */ -34,-13,55,22,44,-32,109,80,-89,-15,23,14,127,46,-9,2, 
  /* [56][0][][] */ 127,31,13,12,-46,119,-43,-80,-19,46,-76,12,-59,100,-22,52, 
  /* [57][0][][] */ -54,-26,-58,-45,-69,-103,63,-14,-127,-40,66,60,12,28,-12,60, 
  /* [58][0][][] */ 49,-51,57,20,3,-62,-16,11,26,-20,-127,-26,25,-37,-36,47, 
  /* [59][0][][] */ 89,25,-127,103,-1,31,80,-29,-68,-45,20,-116,-118,-68,34,107, 
  /* [60][0][][] */ 1,34,-5,16,-24,-25,-21,-1,-39,-85,67,127,-42,-127,-39,0, 
  /* [61][0][][] */ -41,22,87,-112,-66,52,6,127,-7,-118,51,75,84,-14,6,124, 
  /* [62][0][][] */ 71,49,-11,-127,-19,1,9,-33,-7,29,-33,45,25,-26,-89,-67, 
  /* [63][0][][] */ 3,-23,5,-8,-60,-65,-53,1,-72,-19,-32,-22,127,5,51,-17, 
  /* [64][0][][] */ 25,16,-22,53,-114,-46,-18,-90,61,126,45,4,47,-69,-55,127, 
  /* [65][0][][] */ -27,18,-15,-20,-81,74,29,-27,51,-126,101,-65,78,61,-127,68, 
  /* [66][0][][] */ -124,99,-104,-89,37,-44,-122,-62,-101,115,98,3,-127,-68,50,73, 
  /* [67][0][][] */ 0,-32,-127,-124,70,78,13,-31,-27,-12,55,-17,30,37,13,58, 
  /* [68][0][][] */ 51,25,-12,-51,-61,34,20,36,-62,62,127,-11,-9,-48,-122,4, 
  /* [69][0][][] */ 76,-96,57,-47,9,-110,-27,127,-6,56,83,82,-14,71,-29,3, 
  /* [70][0][][] */ 69,9,123,38,100,-7,127,1,42,16,-67,41,-73,68,-76,41, 
  /* [71][0][][] */ 9,32,90,-73,-127,-81,15,16,-18,-12,22,-98,-77,-3,7,38, 
  /* [72][0][][] */ -63,-92,27,-127,69,-14,13,41,-75,9,-118,-14,62,121,-58,123, 
  /* [73][0][][] */ 25,21,54,-4,127,-93,-49,7,-36,94,-93,30,-86,-58,124,-17, 
  /* [74][0][][] */ -108,2,-120,-77,73,-49,-40,20,-96,1,-127,-40,-34,-57,-40,76, 
  /* [75][0][][] */ 91,-16,43,-53,19,6,-127,-22,-7,-106,78,8,5,-22,-13,-2, 
  /* [76][0][][] */ -2,-57,-46,122,53,92,95,-50,96,-127,61,111,17,-106,-71,38, 
  /* [77][0][][] */ -35,-26,122,-36,25,-29,-23,-127,10,8,47,94,53,48,9,12, 
  /* [78][0][][] */ -49,-2,17,-33,5,-64,29,-6,28,-10,13,-102,-112,-68,-127,-59, 
  /* [79][0][][] */ -98,-58,-22,19,127,23,-19,32,22,33,-12,45,-50,-65,-60,-17, 
  /* [80][0][][] */ 6,-112,57,127,-43,-31,-117,79,-14,32,66,-7,-87,3,-12,61, 
  /* [81][0][][] */ 125,63,-13,89,-10,33,26,127,27,12,115,59,116,28,62,-12, 
  /* [82][0][][] */ -62,2,7,-37,34,-127,-110,-75,10,81,-39,-28,-27,91,-79,-21, 
  /* [83][0][][] */ 94,-28,87,-32,-28,-10,-127,-15,24,-117,8,-49,-19,-4,17,-31, 
  /* [84][0][][] */ 7,-64,-100,16,127,36,42,41,-102,11,-97,-16,35,-45,-74,24, 
  /* [85][0][][] */ 7,106,34,-58,94,3,52,-110,127,-48,46,-12,100,-101,2,12, 
  /* [86][0][][] */ 112,-38,127,45,5,-54,78,37,-65,-57,-94,-42,39,20,-70,9, 
  /* [87][0][][] */ -3,5,18,-78,61,-23,-41,6,32,-44,75,-32,-76,-127,-5,26, 
  /* [88][0][][] */ -56,-26,28,-7,18,21,-61,-45,-3,5,-69,-127,-39,-47,-22,-9, 
  /* [89][0][][] */ -87,22,10,-79,31,-4,-127,35,84,29,-64,-1,-14,-86,-55,-17, 
  /* [90][0][][] */ -14,-13,-34,-89,127,19,-56,43,40,48,34,-9,37,13,-74,-12, 
  /* [91][0][][] */ -37,-52,17,36,-41,-15,-4,64,-34,-60,29,-34,-3,47,11,127, 
  /* [92][0][][] */ -20,89,1,-18,-22,62,-107,62,-39,-17,69,6,-38,127,54,33, 
  /* [93][0][][] */ -3,78,-56,-65,67,89,-82,11,72,67,66,48,-127,22,-42,83, 
  /* [94][0][][] */ 23,71,94,9,-127,-35,14,-6,23,-25,32,-13,-54,-27,11,-18, 
  /* [95][0][][] */ -14,29,35,-2,127,-29,-93,83,20,17,-71,104,8,14,106,-36, 
};
const TfArray<4, int> tensor_dimension7 = { 4, { 96,1,1,16 } };
const TfArray<96, float> quant7_scale = { 96, { 0.0012829018523916602, 0.0024310280568897724, 0.002174032386392355, 0.0015755047788843513, 0.0016923367511481047, 0.0014903430128470063, 0.0017458639340475202, 0.0020878228824585676, 0.0019789196085184813, 0.0022670277394354343, 0.0017657637363299727, 0.0023678792640566826, 0.0011780803324654698, 0.0011974258814007044, 0.0012693393509835005, 0.0018675086321309209, 0.0016668580938130617, 0.0016837709117680788, 0.0020776770543307066, 0.0014091235352680087, 0.0020961430855095387, 0.0019312674412503839, 0.0016610079910606146, 0.0022194052580744028, 0.0019581043161451817, 0.0020952634513378143, 0.0015656172763556242, 0.0019302752334624529, 0.001585646066814661, 0.0014765614178031683, 0.0014274865388870239, 0.0013948583509773016, 0.0022999001666903496, 0.00096107082208618522, 0.0013842990156263113, 0.0017555681988596916, 0.0021822284907102585, 0.0014359524939209223, 0.0016206955770030618, 0.00096953188767656684, 0.002295755548402667, 0.0020438139326870441, 0.0030244642402976751, 0.0014381686924025416, 0.00180204794742167, 0.0019297311082482338, 0.0021623922511935234, 0.0022319559939205647, 0.00086049013771116734, 0.0015350730391219258, 0.0024366970174014568, 0.0017318163299933076, 0.001270630513317883, 0.0021339270751923323, 0.0020214535761624575, 0.0017375565366819501, 0.0021612923592329025, 0.0010933936573565006, 0.00194061070214957, 0.0019666883163154125, 0.0021279989741742611, 0.0012495697010308504, 0.0028884497005492449, 0.0019267379539087415, 0.001410093973390758, 0.0011633221292868257, 0.0011533678043633699, 0.0011012583272531629, 0.0012365200091153383, 0.0020211529918015003, 0.0016257015522569418, 0.001716461731120944, 0.0014196740230545402, 0.0013996227644383907, 0.0012063684407621622, 0.0012783764395862818, 0.0015778710367158055, 0.0018013374647125602, 0.0018251128494739532, 0.0019983446691185236, 0.0012125317007303238, 0.0016112263547256589, 0.0025894397404044867, 0.0016733979573473334, 0.0022099516354501247, 0.0021199644543230534, 0.0019553042948246002, 0.0017571952193975449, 0.0014045245479792356, 0.0018702702363952994, 0.0017990460619330406, 0.0022075723391026258, 0.0017372836591675878, 0.0014431437011808157, 0.0028983508236706257, 0.0016641432885080576, } };
const TfArray<96, int> quant7_zero = { 96, { 0,0,0,0,0,0,0,0,0,0,0,0,0,0,0,0,0,0,0,0,0,0,0,0,0,0,0,0,0,0,0,0,0,0,0,0,0,0,0,0,0,0,0,0,0,0,0,0,0,0,0,0,0,0,0,0,0,0,0,0,0,0,0,0,0,0,0,0,0,0,0,0,0,0,0,0,0,0,0,0,0,0,0,0,0,0,0,0,0,0,0,0,0,0,0,0 } };
const TfLiteAffineQuantization quant7 = { (TfLiteFloatArray*)&quant7_scale, (TfLiteIntArray*)&quant7_zero, 0 };
const MODEL_SECTION(EI_MODEL_SECTION) ALIGN(16) int32_t tensor_data8[16] = { 11191, 16774, -4348, 916, 711, 6866, 49, 4658, 18832, -6958, -8277, 8139, -13974, 11549, 2084, 10927, };
const TfArray<1, int> tensor_dimension8 = { 1, { 16 } };
const TfArray<16, float> quant8_scale = { 16, { 6.4284824475180358e-05, 7.1757182013243437e-05, 6.7605898948386312e-05, 5.9263049479341134e-05, 8.0667385191190988e-05, 6.3618019339628518e-05, 5.8953748521162197e-05, 6.1090417148079723e-05, 9.9495373433455825e-05, 8.3535429439507425e-05, 4.1641986172180623e-05, 5.0907041440950707e-05, 7.7901691838633269e-05, 5.6171287724282593e-05, 9.2007154307793826e-05, 5.0383328925818205e-05, } };
const TfArray<16, int> quant8_zero = { 16, { 0,0,0,0,0,0,0,0,0,0,0,0,0,0,0,0 } };
const TfLiteAffineQuantization quant8 = { (TfLiteFloatArray*)&quant8_scale, (TfLiteIntArray*)&quant8_zero, 0 };
const MODEL_SECTION(EI_MODEL_SECTION) ALIGN(16) int8_t tensor_data9[16*1*1*96] = { 
  /* [0][0][][] */ -118,37,67,-21,-77,-17,-63,0,-57,-1,-15,-24,34,48,34,-43,12,-1,99,18,15,-55,127,64,53,24,4,37,-64,-114,-87,12,-43,-42,37,8,7,26,5,28,-7,3,-78,2,-75,-20,5,87,-21,6,-39,-11,-15,-8,23,-62,-116,-3,-16,79,53,30,-4,7,-29,-51,-49,28,-53,-71,14,-11,4,-1,-80,-53,-42,17,-38,16,-63,76,86,-73,15,48,13,61,30,-20,-14,-38,-40,-39,-54,17, 
  /* [1][0][][] */ 47,15,36,-44,-66,-29,-7,10,-31,18,47,-56,-8,-11,-55,-30,-16,1,-64,22,-14,-66,14,51,-16,-71,-20,-45,64,-106,108,-83,48,25,-16,46,41,65,-12,-42,32,10,-2,-5,18,64,-127,-49,-62,-57,-21,-22,44,-45,-43,42,5,-9,-40,10,20,47,-15,-104,-26,-15,-58,-19,4,-18,-78,-14,-38,-30,19,-76,11,13,35,-70,-23,-30,-87,-26,42,-51,-26,24,-84,-16,-59,54,27,57,-48,56, 
  /* [2][0][][] */ 72,-33,25,18,15,-72,58,2,-2,-13,-6,-17,-69,-25,8,-44,-88,-43,-40,45,16,-67,-49,23,10,-61,12,-25,-27,37,-54,127,-46,123,-28,29,-15,-10,-17,-9,-102,79,63,11,-72,9,-16,-20,34,10,-32,-51,43,-24,-21,57,38,0,47,-11,9,47,-25,16,73,19,-5,-5,36,55,-51,5,49,44,64,44,33,-69,68,58,79,-6,-34,19,-57,30,20,76,23,12,-21,23,-52,50,-22,32, 
  /* [3][0][][] */ -4,-3,-36,4,15,-6,4,-66,-11,67,46,68,38,-11,-67,43,12,-38,28,13,15,127,37,-50,10,31,-9,1,67,-42,66,-12,-14,34,-30,-22,18,56,37,13,-81,-28,-39,20,-40,33,21,0,-12,-44,3,-25,41,-89,-22,-41,19,89,-20,4,-4,-12,-38,10,41,44,-44,11,-26,9,5,-64,-35,-42,33,-8,10,4,-38,-33,-30,-3,-49,7,-24,-31,36,-29,9,27,35,-30,45,31,-47,59, 
  /* [4][0][][] */ 37,2,-33,11,28,28,-44,10,-36,72,78,-14,-2,0,11,-46,7,-14,-28,40,10,-36,54,82,-65,-2,-127,12,-48,-52,2,15,-66,-47,20,57,19,30,16,25,-33,-35,43,-18,4,2,-28,57,-39,47,15,14,47,-5,-78,22,50,-20,4,-9,42,-8,19,15,-50,16,-33,8,-58,28,-38,39,31,-65,-38,-50,25,-49,-10,6,-39,75,-71,5,-20,26,22,-57,41,-1,27,15,-54,-24,40,22, 
  /* [5][0][][] */ -91,37,57,-5,42,-25,56,-41,-18,27,-7,-36,40,-23,-30,-50,-8,-36,57,29,-120,-32,-78,43,-40,-3,48,20,46,-83,-14,46,63,127,-10,41,-5,26,53,-18,-31,97,80,-37,-2,72,47,-9,-4,19,-12,39,9,-43,28,-97,39,-60,-60,-73,69,106,-45,-14,85,-36,-83,-63,-55,-14,-73,-5,-13,8,-31,-47,28,-40,-31,-11,127,-16,34,-92,-84,33,31,-3,-51,41,25,-18,-25,34,11,97, 
  /* [6][0][][] */ 48,-5,-100,35,-40,-118,100,84,-59,82,-5,69,-127,-79,46,61,10,-66,-15,-3,-8,-32,-75,-66,-63,58,93,22,38,22,106,-54,40,16,6,-71,21,2,30,91,-9,28,-70,-23,5,-65,-89,11,36,-117,-27,75,34,4,-24,-77,85,55,21,-14,-101,63,-85,-4,29,1,-5,69,40,40,-17,-56,-49,29,107,50,59,-30,52,-75,-3,-57,-71,59,-8,-73,62,9,-30,78,51,32,-35,16,-44,126, 
  /* [7][0][][] */ 35,83,-37,-58,-20,-14,42,10,-65,28,-51,-62,-47,11,22,-8,-54,-45,-35,64,-8,127,3,34,-7,2,12,31,49,44,84,-25,71,31,-23,7,-2,-5,4,27,-58,-14,9,-51,16,-53,77,-26,40,-74,-98,-32,-46,13,-4,-14,20,19,-104,15,-11,110,16,-25,-35,3,-40,7,-30,-27,-98,38,22,70,-29,41,-50,53,13,-74,-19,-51,53,-78,41,-26,1,0,-18,69,-92,50,59,-37,-45,14, 
  /* [8][0][][] */ -6,78,-56,41,-35,-22,-78,30,-90,-31,0,15,-31,40,27,90,2,-52,0,7,30,8,9,-12,-41,69,-3,21,-14,-14,-46,-32,-28,-59,-28,-67,-39,27,41,1,0,-34,30,7,-36,-37,1,-10,-22,-23,48,67,4,-24,-72,97,-33,30,-11,-35,-46,5,10,59,-31,-66,-42,-11,-53,11,9,1,-34,-48,-117,-22,-52,32,-71,-43,-34,-5,-41,-35,-1,5,16,21,7,58,-57,-4,-82,-127,25,-53, 
  /* [9][0][][] */ -21,20,-73,42,-31,-35,68,57,-1,48,-18,97,-17,-17,17,127,15,14,73,17,21,11,35,-92,-27,2,32,-9,10,-15,38,54,-25,3,7,-112,24,-20,-17,-14,-17,26,42,-25,-17,5,19,16,40,88,35,-7,-59,-78,2,2,3,-9,74,-19,-63,61,-58,-21,92,-12,-23,16,-72,23,33,38,-12,86,-26,-25,-27,28,-42,-8,49,-29,64,-2,29,-8,-17,-32,-45,24,2,-9,62,36,-43,2, 
  /* [10][0][][] */ 72,-7,-33,0,-37,-35,84,7,3,-38,-30,-9,-107,-18,15,-6,-83,-30,29,23,42,43,21,6,-43,74,29,0,-49,-68,-30,-11,69,-30,54,4,71,-89,87,119,27,-67,8,13,-18,-91,-2,65,29,79,-71,-40,-16,31,8,46,8,-71,68,56,-20,43,-76,-23,-19,-48,23,41,28,-38,-4,49,127,28,26,-95,36,-51,55,-6,-49,33,27,28,-28,-18,0,53,-55,-22,18,62,54,66,-23,8, 
  /* [11][0][][] */ -69,-35,55,-67,14,-10,-27,-41,49,-47,3,-16,-21,-6,5,-4,-68,3,64,21,-49,4,-79,-85,25,24,-37,48,39,-61,40,-23,24,3,13,-25,-81,16,-116,22,-73,68,-45,48,14,11,0,-43,22,-38,-52,-50,10,15,72,-59,-25,-72,17,-54,-21,-47,-16,-118,16,-57,63,70,127,19,70,-11,-31,-22,67,-31,101,37,26,51,27,1,-19,82,77,2,-1,-6,-73,-65,-20,12,37,44,58,69, 
  /* [12][0][][] */ 44,-22,10,-33,33,110,-13,38,39,55,0,55,15,44,23,-3,-69,56,19,49,127,-5,74,-69,35,18,-76,-66,-18,78,0,4,28,-6,6,-36,43,-5,-37,-40,23,-25,39,57,-24,38,4,-16,-69,27,-5,27,-23,-25,10,16,-42,62,4,52,24,-93,10,-104,-11,98,-10,-43,2,-44,60,10,2,7,-7,48,-7,44,-75,-10,-15,36,121,15,-17,67,-29,-63,65,3,-82,58,70,5,-21,-92, 
  /* [13][0][][] */ -15,39,-6,-49,-33,-12,-2,-29,27,-28,-36,-92,59,-125,-44,-75,-24,-31,-81,-14,-92,-41,10,114,-25,5,124,9,22,-45,61,45,13,3,-125,127,-33,-60,30,-61,116,11,-3,31,-9,-91,61,-34,87,-16,-43,30,20,-3,0,73,73,-51,-35,-14,60,48,-1,-95,5,37,-32,43,-57,-40,-82,10,-51,17,-43,-89,-102,20,40,84,-10,66,40,-95,53,40,35,-12,-14,-14,-17,14,-64,22,-27,-4, 
  /* [14][0][][] */ -15,30,-82,-29,79,87,-86,-12,41,-35,82,-8,25,-25,-47,-67,-58,19,30,127,12,-30,-3,4,3,45,-18,61,10,-12,-20,12,67,-2,-40,11,-22,57,69,15,50,5,24,-6,-18,-43,46,-36,27,-2,-5,-24,31,7,-25,34,17,56,-76,-14,-9,-60,-33,-90,23,-45,-48,7,-68,62,-22,34,1,-22,-23,-27,33,-8,-47,-31,25,13,7,-19,-24,49,-7,-18,-23,69,69,6,-3,-33,-54,-62, 
  /* [15][0][][] */ -69,-49,57,-58,20,-30,-30,-84,-20,5,-11,68,-19,-21,49,96,-123,-22,23,-76,28,-24,-13,-83,52,-20,40,-48,-64,-100,-67,35,-47,61,86,-109,-10,-39,29,-35,-15,-12,36,-10,9,7,72,104,-56,-14,13,-43,-40,61,2,-66,-111,-24,99,21,-33,15,-101,21,-87,3,10,12,61,-88,97,-23,70,-44,-36,-52,18,20,52,8,-15,75,47,37,17,-23,-127,17,-18,-63,-96,43,44,-40,-12,68, 
};
const TfArray<4, int> tensor_dimension9 = { 4, { 16,1,1,96 } };
const TfArray<16, float> quant9_scale = { 16, { 0.002732104854658246, 0.0030496802646666765, 0.0028732505161315203, 0.0025186794809997082, 0.0034283637069165707, 0.0027037658728659153, 0.002505534328520298, 0.0025963427033275366, 0.004228553269058466, 0.0035502556711435318, 0.0017697843722999096, 0.0021635491866618395, 0.0033108217176049948, 0.0023872796446084976, 0.0039103040471673012, 0.0021412915084511042, } };
const TfArray<16, int> quant9_zero = { 16, { 0,0,0,0,0,0,0,0,0,0,0,0,0,0,0,0 } };
const TfLiteAffineQuantization quant9 = { (TfLiteFloatArray*)&quant9_scale, (TfLiteIntArray*)&quant9_zero, 0 };
const MODEL_SECTION(EI_MODEL_SECTION) ALIGN(16) int32_t tensor_data10[96] = { -609, 915, -5065, -6215, -504, 5130, -2394, 1816, -1027, -1721, 10441, -1817, -204, 11171, 9634, -5846, 18222, 2532, -6257, -37, -1686, -428, 1629, -2195, 669, -4332, -1198, -4956, 1955, -8199, 2740, -655, 13532, 909, -3878, 119, -1995, -2072, -442, 7508, -724, -1898, -1184, -4350, 12700, 14768, 1786, 13319, 1883, 14191, 16234, -2602, -798, -1769, -842, 9595, -401, 2276, 11885, 8588, 7750, 12435, 9941, -7531, 1092, 2372, -3676, 2778, -3694, -2010, 1853, 4604, 12813, -267, -667, 13803, -1052, 754, 8664, 299, -7, 15647, -423, 1854, 17637, 5642, -4770, -3944, -1858, -6410, 17037, 229, -2090, -254, -4695, -4246, };
const TfArray<1, int> tensor_dimension10 = { 1, { 96 } };
const TfArray<96, float> quant10_scale = { 96, { 0.00025909932446666062, 0.0001711765507934615, 0.00010796414426295087, 0.00013294856762513518, 0.00021328068396542221, 0.00025439448654651642, 0.00027803709963336587, 0.00018478468700777739, 0.00017680288874544203, 0.00013571430463343859, 8.8069551566150039e-05, 0.00038845455856062472, 0.00019113400776404887, 0.00010801199096022174, 0.00016471247363369912, 0.00011747761163860559, 8.3485276263672858e-05, 0.00018667950644157827, 0.00012926344061270356, 0.00010034951992565766, 0.00013505133392754942, 0.00024040526477620006, 0.00021803792333230376, 0.00016391705139540136, 0.0005775428144261241, 0.00017948538879863918, 0.00021969138470012695, 0.00010283865412930027, 0.00014489746536128223, 7.8052755270618945e-05, 0.00025239749811589718, 0.0002849843876902014, 0.00014411052688956261, 0.00018769217422232032, 0.00021570210810750723, 0.00050206884043291211, 0.00017085409490391612, 0.00026767008239403367, 0.00027353383484296501, 0.00010482365178177133, 0.00016578516806475818, 0.00022808003996033221, 0.00014808683772571385, 0.0001571381144458428, 0.00010822162585100159, 9.9081284133717418e-05, 0.00022716961393598467, 0.00010522174852667376, 0.00014105996524449438, 6.6981912823393941e-05, 8.7843065557535738e-05, 0.00013873388525098562, 0.00017144746379926801, 0.00015112078108359128, 0.00019177621288690716, 0.00017294393910560757, 0.000187111203558743, 0.00016084432718344033, 0.000135855792905204, 9.9907214462291449e-05, 0.00014829411520622671, 0.00015846923633944243, 0.00010781396849779412, 0.00011443466792115942, 0.00012829899787902832, 0.00023466172569897026, 0.00017769250553101301, 0.00016423157649114728, 0.00019863096531480551, 0.0001903942902572453, 0.0001779030280886218, 0.00013892182323615998, 0.00011231238750042394, 0.00022505280503537506, 0.00022738489496987313, 9.4793227617628872e-05, 0.00014202961756382138, 0.00020086394215468317, 0.00014162602019496262, 0.00022219601669348776, 0.00019078308832831681, 0.00010963784734485671, 0.00018106136121787131, 0.00015123578486964107, 9.7643154731485993e-05, 0.00014572948566637933, 0.00011458456719992682, 0.00017104271682910621, 0.00019417097792029381, 0.00019067651010118425, 7.3054565291386098e-05, 0.00028197889332659543, 0.00016282153956126422, 0.00027180140023119748, 0.00013012117415200919, 0.00027671776479110122, } };
const TfArray<96, int> quant10_zero = { 96, { 0,0,0,0,0,0,0,0,0,0,0,0,0,0,0,0,0,0,0,0,0,0,0,0,0,0,0,0,0,0,0,0,0,0,0,0,0,0,0,0,0,0,0,0,0,0,0,0,0,0,0,0,0,0,0,0,0,0,0,0,0,0,0,0,0,0,0,0,0,0,0,0,0,0,0,0,0,0,0,0,0,0,0,0,0,0,0,0,0,0,0,0,0,0,0,0 } };
const TfLiteAffineQuantization quant10 = { (TfLiteFloatArray*)&quant10_scale, (TfLiteIntArray*)&quant10_zero, 0 };
const MODEL_SECTION(EI_MODEL_SECTION) ALIGN(16) int8_t tensor_data11[1*3*3*96] = { 
  /* [0][0][][] */ 33,121,8,20,-38,-8,40,32,61,-79,-95,36,-22,2,-1,-57,-96,14,16,34,47,64,66,80,13,-2,-44,-9,-25,-1,12,-15,-59,1,-21,98,3,47,2,4,26,-43,2,34,-126,-47,13,-15,-30,-97,-42,-11,11,59,-24,-17,-87,-81,-46,-127,-127,14,-111,6,-35,35,46,-20,-16,48,44,-7,-26,4,35,-4,-11,-32,-80,26,0,-70,58,-19,-94,-65,-9,24,-111,26,-82,45,80,-4,65,7, -37,-30,6,92,-15,86,-18,-14,61,20,-127,58,-38,-50,-79,127,-119,65,49,76,127,14,84,127,29,-6,16,57,-4,127,-19,-127,53,81,15,38,86,93,-29,-127,127,-9,112,127,-59,-94,127,-69,-18,-111,-110,-34,13,127,-21,-127,16,19,-109,-99,-31,-127,-58,93,-31,76,127,-31,9,127,127,-13,-72,17,-41,-86,23,-61,-25,127,-14,-72,127,-66,-127,-57,104,73,107,109,-98,3,127,-28,127,35, 29,-106,22,13,-23,-23,-1,41,34,69,-72,4,-18,48,-17,-76,-37,15,9,24,44,53,47,87,12,-50,21,33,-1,6,-21,-42,-58,-81,-21,65,15,1,12,12,-13,37,-9,63,-66,-31,5,5,13,-50,-6,5,-4,8,14,-3,48,-97,-26,-90,-91,30,-79,0,36,10,-38,-6,-20,16,10,-1,-24,-46,-11,-1,5,-8,-90,13,-8,-83,36,1,-13,-56,3,-14,-85,11,-31,41,30,33,12,-2, 
  /* [0][1][][] */ 96,-4,67,127,14,-56,127,33,-18,-127,-80,127,1,-127,-82,35,-77,-49,78,39,-100,-2,-127,-67,-19,64,-127,127,-95,81,127,87,21,57,21,123,-127,75,-22,-43,62,-125,34,46,-127,-76,1,-125,-127,-117,-127,5,127,-42,92,-16,-127,-8,-50,-8,-69,-56,-45,46,-101,-20,89,-103,-37,27,-37,-127,-127,59,127,-89,94,77,-94,-45,127,-127,-37,99,-46,-27,2,94,-1,39,-67,24,1,-78,87,-10, -127,15,-86,116,-71,-127,-105,-127,69,13,-35,39,-89,-105,-47,122,-127,-127,127,127,32,-127,-125,96,-127,127,14,82,-86,-43,-124,71,-127,76,127,-37,31,127,127,-86,-41,36,38,25,-38,-127,-82,-127,-5,-127,-103,127,41,75,64,-69,30,10,94,-50,-33,-54,-127,127,3,-127,102,127,25,46,-106,-84,-32,57,-104,-127,127,127,85,-59,-77,-17,-108,68,-113,-109,127,127,127,127,-127,-127,-95,-51,71,127, 61,-23,113,74,14,-33,16,25,-37,121,-67,73,6,-22,-127,73,12,-35,25,4,-108,10,-83,-72,-8,-18,117,-20,127,124,7,-104,-31,-127,-5,127,-126,18,-39,-38,-14,127,36,90,-41,-16,-6,-72,112,-85,-84,-10,47,-67,-127,30,99,-12,-127,60,-24,-56,5,42,127,-42,-19,-12,-48,-3,-29,-54,-127,-127,-7,-51,2,-29,-127,-36,-78,-111,-25,127,-117,1,-2,1,-36,-14,-5,48,-12,127,27,-7, 
  /* [0][2][][] */ 35,-127,48,2,8,9,30,41,-38,-49,3,-33,17,-16,-31,42,-33,20,2,33,1,55,26,-29,14,124,0,-3,-36,11,-2,24,-22,-23,-14,-9,60,-13,-4,-21,5,18,-2,-51,-12,-40,-15,2,-30,10,-48,11,-21,8,-32,-7,-17,-10,20,43,-43,7,29,-21,-40,47,-44,-21,35,5,21,64,-29,10,23,0,-31,-33,-2,1,10,-29,-14,-41,-79,21,-35,-11,-88,58,-5,20,-3,10,17,-7, -52,1,127,1,127,63,-23,0,-127,5,-68,-41,127,-43,-71,29,2,53,4,-48,23,25,72,-8,68,-78,0,48,-20,115,-25,10,-70,16,22,-39,87,39,22,-105,-19,-3,-127,7,11,-11,-49,-53,-11,-67,-54,68,108,-50,-31,-65,-23,127,-12,6,75,-115,85,48,-23,23,-35,9,127,-17,10,75,-85,16,-18,-60,-4,-98,-29,-47,-10,-77,-30,-66,-59,127,31,3,98,35,34,19,-25,-7,2,8, 20,69,56,-20,3,-15,-4,32,10,54,30,2,11,-7,-30,41,-41,4,-3,18,-11,42,12,-37,7,103,18,33,-1,27,-35,-74,-45,-30,-6,-23,46,-45,-4,-8,-6,1,22,-9,-59,-19,-16,5,8,33,-35,-5,-15,-9,13,13,4,0,10,77,-33,13,20,-30,39,13,-60,18,20,-6,12,55,-7,-20,-3,-3,-15,-19,-6,2,-13,-70,-7,-5,-45,18,-36,-28,-75,38,15,23,-12,15,-15,-9, 
};
const TfArray<4, int> tensor_dimension11 = { 4, { 1,3,3,96 } };
const TfArray<96, float> quant11_scale = { 96, { 0.013225197792053223, 0.0087373582646250725, 0.0055108098313212395, 0.0067860889248549938, 0.010886478237807751, 0.012985048815608025, 0.014191837981343269, 0.0094319581985473633, 0.0090245436877012253, 0.0069272606633603573, 0.0044953310862183571, 0.019827872514724731, 0.0097560463473200798, 0.0055132522247731686, 0.0084074130281805992, 0.0059964056126773357, 0.0042613358236849308, 0.0095286751165986061, 0.0065979892387986183, 0.0051221367903053761, 0.0068934201262891293, 0.012270997278392315, 0.011129301972687244, 0.0083668120205402374, 0.029479498043656349, 0.0091614658012986183, 0.011213699355721474, 0.0052491896785795689, 0.0073959962464869022, 0.0039840438403189182, 0.012883116491138935, 0.014546448364853859, 0.0073558283038437366, 0.0095803644508123398, 0.011010074988007545, 0.025627080351114273, 0.0087208990007638931, 0.013662674464285374, 0.013961977325379848, 0.0053505096584558487, 0.0084621664136648178, 0.011641881428658962, 0.0075587914325296879, 0.0080207949504256248, 0.0055239526554942131, 0.0050574024207890034, 0.011595410294830799, 0.0053708297200500965, 0.0072001186199486256, 0.0034189554862678051, 0.0044837705790996552, 0.007081388495862484, 0.0087511865422129631, 0.007713652215898037, 0.0097888261079788208, 0.0088275708258152008, 0.0095507102087140083, 0.0082099707797169685, 0.006934482604265213, 0.0050995601341128349, 0.0075693712569773197, 0.0080887395888566971, 0.0055031445808708668, 0.0058410847559571266, 0.006548760924488306, 0.011977829970419407, 0.0090699521824717522, 0.008382866159081459, 0.010138712823390961, 0.0097182886675000191, 0.0090806977823376656, 0.0070909815840423107, 0.0057327570393681526, 0.01148736197501421, 0.011606398969888687, 0.0048385271802544594, 0.0072496128268539906, 0.010252690874040127, 0.0072290115058422089, 0.011341542936861515, 0.0097381342202425003, 0.0055962405167520046, 0.0092419087886810303, 0.0077195223420858383, 0.0049839960411190987, 0.0074384650215506554, 0.0058487360365688801, 0.0087305270135402679, 0.0099110621958971024, 0.0097326943650841713, 0.0037289215251803398, 0.014393038116395473, 0.0083108935505151749, 0.013873548246920109, 0.0066417702473700047, 0.014124494977295399, } };
const TfArray<96, int> quant11_zero = { 96, { 0,0,0,0,0,0,0,0,0,0,0,0,0,0,0,0,0,0,0,0,0,0,0,0,0,0,0,0,0,0,0,0,0,0,0,0,0,0,0,0,0,0,0,0,0,0,0,0,0,0,0,0,0,0,0,0,0,0,0,0,0,0,0,0,0,0,0,0,0,0,0,0,0,0,0,0,0,0,0,0,0,0,0,0,0,0,0,0,0,0,0,0,0,0,0,0 } };
const TfLiteAffineQuantization quant11 = { (TfLiteFloatArray*)&quant11_scale, (TfLiteIntArray*)&quant11_zero, 3 };
const MODEL_SECTION(EI_MODEL_SECTION) ALIGN(16) int32_t tensor_data12[96] = { 6293, 5034, 2183, -1355, 6309, 10187, 11275, 1324, -244, 9688, 1179, -4880, 3731, 2880, 773, -397, 3290, 6595, -1053, 97, 5775, 8829, 11544, -1590, -3448, -1523, 15521, -262, 2257, 873, 12390, -1737, 9265, 2319, 5323, -5357, 1359, -4040, 166, 2082, 3508, 1199, 1361, -542, 1352, 1800, 4075, 4267, 5384, 3570, 5603, 2411, -3136, 1577, 1274, 2088, 2596, 3836, 9212, 1360, -1194, 5443, 4711, 3720, 6559, 7521, -4979, 2710, 5353, -876, 7331, 2572, 3327, 3607, 3668, 2770, -813, 2238, 2725, 2742, 2623, 3668, 9880, 826, 2841, 5768, 845, -887, 12082, -621, 1191, -1309, 13849, 2812, 47, -1030, };
const TfArray<1, int> tensor_dimension12 = { 1, { 96 } };
const TfArray<96, float> quant12_scale = { 96, { 0.00011833404278149828, 7.2941438702400774e-05, 9.272894385503605e-05, 0.00014966895105317235, 0.00011221504246350378, 7.7558644989039749e-05, 7.5097676017321646e-05, 0.00020245878840796649, 0.0001483086816733703, 7.9794590419624001e-05, 0.00017036896315403283, 9.6782881882973015e-05, 0.00013781835150439292, 0.0001536806084914133, 0.00012754206545650959, 0.00015608685498591512, 0.00018147456285078079, 0.00011405262193875387, 9.2883848992642015e-05, 0.00014077551895752549, 0.00010296937398379669, 9.7361946245655417e-05, 7.8939097875263542e-05, 0.00016181223327293992, 0.00016179122030735016, 0.00010142325481865555, 5.8619862102204934e-05, 0.00013218782260082662, 0.0001247449399670586, 0.00018239085329696536, 7.0663103542756289e-05, 0.00015493504179175943, 8.7840089690871537e-05, 0.00019936215539928526, 0.00012445001630112529, 0.00011795399041147903, 0.00011756141611840576, 0.00014510056644212455, 0.00016934855375438929, 0.00014414178440347314, 0.00012666796101257205, 0.00019051389244850725, 0.00023383699590340257, 0.00017866201233118773, 0.00019607269496191293, 0.00021726518752984703, 0.00013896347081754357, 0.00013332476373761892, 0.00011581841681618243, 0.00013857062731403857, 0.00012944833724759519, 0.00016032757412176579, 0.00012070797674823552, 0.00020165048772469163, 0.0001605943834874779, 0.00018931421800516546, 0.00014541887503582984, 0.0001088825665647164, 8.5303538071457297e-05, 0.00013311332440935075, 0.00018481946608517319, 0.00013036193558946252, 0.00011835724581032991, 0.00016195981879718602, 9.1218025772832334e-05, 9.882054291665554e-05, 0.00011695954162860289, 0.00015079091826919466, 0.0001142101245932281, 0.00016890150436665863, 9.726987627800554e-05, 8.7141663243528455e-05, 0.00011514416110003367, 0.0001188284732052125, 0.00014968347386457026, 0.00010794722038554028, 0.00012628994591068476, 0.00015454947424586862, 0.00012838620750699192, 0.00018836309027392417, 0.00017812261648941785, 0.00011170039942953736, 7.9437835665885359e-05, 0.00012495687406044453, 0.00012065032933605835, 0.00012191868881927803, 0.0001592000771779567, 0.00026803553919307888, 7.6529962825588882e-05, 0.00014992189244367182, 0.00016025270451791584, 0.00015691912267357111, 6.465119804488495e-05, 0.00013808619405608624, 0.00023071416944731027, 0.00013364513870328665, } };
const TfArray<96, int> quant12_zero = { 96, { 0,0,0,0,0,0,0,0,0,0,0,0,0,0,0,0,0,0,0,0,0,0,0,0,0,0,0,0,0,0,0,0,0,0,0,0,0,0,0,0,0,0,0,0,0,0,0,0,0,0,0,0,0,0,0,0,0,0,0,0,0,0,0,0,0,0,0,0,0,0,0,0,0,0,0,0,0,0,0,0,0,0,0,0,0,0,0,0,0,0,0,0,0,0,0,0 } };
const TfLiteAffineQuantization quant12 = { (TfLiteFloatArray*)&quant12_scale, (TfLiteIntArray*)&quant12_zero, 0 };
const MODEL_SECTION(EI_MODEL_SECTION) ALIGN(16) int8_t tensor_data13[96*1*1*16] = { 
  /* [0][0][][] */ -65,53,-36,-17,-37,-49,-51,-30,71,-34,44,-61,73,-127,15,-122, 
  /* [1][0][][] */ -94,73,-99,-113,-83,29,-19,66,-49,1,101,-41,40,127,27,38, 
  /* [2][0][][] */ -46,-6,-91,-4,-9,-55,39,-51,-101,118,65,10,54,55,-61,127, 
  /* [3][0][][] */ -52,-81,7,-41,-82,3,-65,-124,-6,22,40,-87,-78,-46,-127,-54, 
  /* [4][0][][] */ 78,5,-8,47,-74,-6,-127,32,19,81,13,52,-1,4,-36,-92, 
  /* [5][0][][] */ -107,72,-101,-43,59,-55,-17,-75,98,-24,19,-35,14,-121,-127,-96, 
  /* [6][0][][] */ -15,-44,-38,33,-94,82,40,-40,-20,-51,127,-24,3,9,-120,1, 
  /* [7][0][][] */ -29,94,127,-82,59,73,-12,-58,50,58,-78,-19,49,-9,14,74, 
  /* [8][0][][] */ -48,8,24,-11,61,16,97,127,-69,-20,-53,-84,40,81,-78,-52, 
  /* [9][0][][] */ 30,45,96,25,-117,-36,-96,-118,75,17,127,24,-44,-106,46,-16, 
  /* [10][0][][] */ -10,-107,10,-73,-127,69,34,22,-35,-59,-17,37,-16,51,-114,23, 
  /* [11][0][][] */ 127,-48,-21,94,-120,-34,53,-16,113,119,-52,21,26,-88,-22,102, 
  /* [12][0][][] */ -58,-49,127,-21,55,-20,26,46,69,-21,99,66,-29,20,-97,34, 
  /* [13][0][][] */ -8,-45,30,24,10,5,127,30,-99,14,0,6,-15,109,96,-79, 
  /* [14][0][][] */ 123,-92,127,19,54,49,78,56,72,78,46,44,56,-27,48,-65, 
  /* [15][0][][] */ 3,127,-5,-43,40,119,-74,72,-38,-35,-45,-20,-63,97,-29,-40, 
  /* [16][0][][] */ -38,53,109,-38,21,71,8,-9,-13,8,-23,36,93,8,85,127, 
  /* [17][0][][] */ 2,98,62,-127,29,-41,5,-63,-55,77,-19,58,-64,-15,100,-45, 
  /* [18][0][][] */ -82,-5,-69,-86,127,96,-40,-84,51,94,124,78,-5,127,-42,4, 
  /* [19][0][][] */ 58,127,98,77,48,-34,-14,-4,-41,121,51,123,79,81,-61,32, 
  /* [20][0][][] */ 115,8,-3,87,-85,0,-21,59,-34,-62,-127,-41,83,-51,43,-1, 
  /* [21][0][][] */ -88,-87,-26,111,-30,-7,-127,67,17,-6,40,22,-34,24,-72,12, 
  /* [22][0][][] */ -5,-2,-71,-46,127,-10,-40,64,56,82,44,66,-31,21,3,40, 
  /* [23][0][][] */ -68,13,-21,10,8,55,95,85,-12,127,-20,-27,0,24,-47,-30, 
  /* [24][0][][] */ 28,-81,40,4,127,31,71,-36,49,25,42,33,-67,31,-3,-19, 
  /* [25][0][][] */ 118,-45,82,8,9,-17,-32,95,106,-13,-46,14,127,-39,96,44, 
  /* [26][0][][] */ 50,39,112,91,90,-16,-62,-13,9,82,20,127,31,-90,20,-61, 
  /* [27][0][][] */ -52,22,-59,35,-35,110,12,-85,26,-70,127,27,54,-26,126,100, 
  /* [28][0][][] */ -38,35,-79,-127,23,-75,-2,-54,-97,73,-46,32,-29,24,-24,74, 
  /* [29][0][][] */ 88,83,-65,48,25,77,-54,-17,46,53,3,62,-127,15,-14,58, 
  /* [30][0][][] */ -29,79,-113,-59,69,-44,18,14,-61,50,-74,-15,11,61,-1,127, 
  /* [31][0][][] */ 26,-112,91,45,52,-75,-84,35,-26,-7,26,-32,-71,54,44,127, 
  /* [32][0][][] */ -69,67,-11,31,-98,61,18,68,25,-127,37,-89,28,31,25,56, 
  /* [33][0][][] */ -63,-7,64,97,-8,21,-60,8,-41,-55,8,-23,-18,-12,11,127, 
  /* [34][0][][] */ -8,16,-81,-99,61,-13,-13,70,26,-15,0,-15,-62,-29,-32,127, 
  /* [35][0][][] */ 69,-15,26,-6,1,19,-85,-15,-10,-127,-52,15,-7,-27,48,-28, 
  /* [36][0][][] */ -1,18,-127,-17,42,106,-4,35,-40,4,53,31,17,27,-70,56, 
  /* [37][0][][] */ 52,34,69,-49,56,-127,32,-16,-114,62,-91,-26,8,30,104,26, 
  /* [38][0][][] */ -34,127,24,-43,32,24,67,-94,13,-1,-103,36,-49,-91,-93,16, 
  /* [39][0][][] */ 94,41,-127,-115,-18,-28,7,-70,12,-10,-2,-39,60,-2,-123,-79, 
  /* [40][0][][] */ -45,21,-82,-87,-51,-16,20,-127,-4,0,12,-33,40,78,37,58, 
  /* [41][0][][] */ -39,-101,2,127,5,-20,-69,-18,1,-49,58,-61,-62,-4,4,14, 
  /* [42][0][][] */ -24,61,-29,-127,17,16,14,-28,58,1,-37,18,63,-18,-20,19, 
  /* [43][0][][] */ 14,41,20,32,127,23,12,15,2,41,-14,-88,-112,-35,-10,-24, 
  /* [44][0][][] */ 94,-25,44,55,-18,-13,-8,37,34,-32,18,0,127,4,-43,-39, 
  /* [45][0][][] */ 15,-76,-58,38,-40,-84,11,46,24,-23,14,32,-72,127,36,-27, 
  /* [46][0][][] */ -10,-76,48,77,0,4,-105,48,24,-53,42,-25,35,78,78,127, 
  /* [47][0][][] */ -34,-63,28,82,5,-4,46,16,7,-52,-127,-31,47,-16,-50,5, 
  /* [48][0][][] */ -76,108,-17,-44,7,59,-11,-127,15,-42,57,-45,49,-125,-71,12, 
  /* [49][0][][] */ -58,8,45,-42,7,2,119,127,-31,-31,-10,24,-50,38,-54,30, 
  /* [50][0][][] */ 53,29,-86,26,38,-123,-38,-17,-82,54,-55,1,21,-86,-127,-50, 
  /* [51][0][][] */ -54,56,-42,127,-33,58,-56,-70,-44,-75,1,-63,-7,38,-8,118, 
  /* [52][0][][] */ -127,-4,31,8,24,42,58,6,21,-88,-53,-54,-118,-69,-122,-18, 
  /* [53][0][][] */ -48,-84,-52,-127,-37,-4,7,82,54,-72,-48,29,-43,25,62,106, 
  /* [54][0][][] */ 5,-58,11,-3,-63,64,57,-29,-10,-89,50,22,-25,-12,-127,37, 
  /* [55][0][][] */ -8,-33,-28,35,64,-30,53,76,-47,-57,-127,-37,54,-29,-22,32, 
  /* [56][0][][] */ 82,-34,-54,-23,-127,26,-123,-11,-11,-7,-33,16,95,-34,49,7, 
  /* [57][0][][] */ -72,12,26,-31,127,51,60,44,-29,62,0,-10,-69,92,-119,-26, 
  /* [58][0][][] */ 36,-7,14,-12,44,-22,-61,-62,52,-127,-73,2,-73,-44,-20,45, 
  /* [59][0][][] */ -57,-21,-7,4,18,38,-105,-48,73,127,-89,5,-14,-2,-14,-6, 
  /* [60][0][][] */ 24,-52,-7,23,-127,-48,29,7,-6,43,-18,45,-1,-45,38,38, 
  /* [61][0][][] */ 17,25,-72,-4,-51,-24,-127,-85,-18,16,32,93,65,-53,108,49, 
  /* [62][0][][] */ 54,-15,53,-24,-20,43,56,122,-55,127,20,84,34,44,71,113, 
  /* [63][0][][] */ 29,-127,-15,-7,-76,11,42,-21,-10,-16,-5,-18,-46,123,121,32, 
  /* [64][0][][] */ -11,-11,-127,-48,18,46,23,-18,-7,-112,49,-2,57,-48,-79,116, 
  /* [65][0][][] */ -17,9,56,61,90,-30,92,90,-43,-2,-124,-64,38,127,-84,-14, 
  /* [66][0][][] */ -47,-127,-11,-102,-53,-120,44,-25,-1,-42,29,90,-61,-42,-68,77, 
  /* [67][0][][] */ -26,-84,-66,-22,-65,105,-14,-127,-68,-21,-51,-101,14,-25,-60,26, 
  /* [68][0][][] */ 127,60,16,-20,-75,6,-64,-51,-85,-115,-29,-6,51,-29,62,-69, 
  /* [69][0][][] */ 44,-1,47,-29,-9,-45,-57,42,-17,127,-20,14,2,36,77,-35, 
  /* [70][0][][] */ 40,-7,-29,69,-120,32,1,-117,110,127,32,64,56,-65,-21,39, 
  /* [71][0][][] */ 127,-64,69,100,-97,-43,35,-37,109,19,-64,45,76,-69,32,0, 
  /* [72][0][][] */ 5,-49,56,107,58,-1,-127,66,89,3,27,6,-39,-58,-55,63, 
  /* [73][0][][] */ 75,15,61,-127,73,-90,-77,48,-15,116,-41,11,22,-88,28,-43, 
  /* [74][0][][] */ 84,14,33,45,-127,-22,44,-4,-70,-35,5,-42,35,-65,13,12, 
  /* [75][0][][] */ 75,127,-106,11,57,54,-12,-28,-21,-32,56,75,-102,52,47,87, 
  /* [76][0][][] */ -68,-35,2,-39,-68,0,94,-7,-64,22,105,47,-59,-127,-21,98, 
  /* [77][0][][] */ -52,127,-28,9,-50,-72,46,72,43,-66,-12,69,-29,60,-10,75, 
  /* [78][0][][] */ 114,31,-38,43,-57,19,-127,-22,-1,-6,-78,5,33,-90,32,42, 
  /* [79][0][][] */ -69,-39,127,60,-36,-87,-49,-48,-25,11,28,8,-73,119,-51,86, 
  /* [80][0][][] */ 65,105,36,-127,-13,34,85,-23,10,15,-40,28,80,-58,6,-3, 
  /* [81][0][][] */ 49,-81,31,-111,102,38,-28,127,126,33,-29,-54,-27,17,-87,-92, 
  /* [82][0][][] */ 87,51,76,7,127,-92,34,54,-1,120,-40,16,-9,-47,38,-97, 
  /* [83][0][][] */ -61,96,8,1,91,79,127,124,0,51,-30,-82,-109,90,-72,-107, 
  /* [84][0][][] */ 15,-106,-2,120,-2,-86,-94,37,-85,63,-62,-14,-127,71,10,-64, 
  /* [85][0][][] */ -89,58,-40,2,-29,-40,-43,-28,-10,45,21,-69,-127,-78,-53,47, 
  /* [86][0][][] */ -12,60,108,127,41,-45,52,13,12,31,-60,-73,33,81,-126,-74, 
  /* [87][0][][] */ -22,57,127,-29,-93,-26,23,17,44,-25,12,44,-57,12,-11,1, 
  /* [88][0][][] */ -36,-61,-125,27,25,53,0,26,-31,-85,-103,-99,127,-5,13,48, 
  /* [89][0][][] */ 41,17,24,-117,11,-63,-62,60,127,-17,23,-101,6,-29,64,-89, 
  /* [90][0][][] */ -1,76,21,5,-38,42,45,109,8,-64,-20,127,52,6,-49,84, 
  /* [91][0][][] */ -67,21,-39,65,88,66,-31,-103,-56,51,-11,6,-113,-127,-68,-15, 
  /* [92][0][][] */ -42,66,-2,-17,-127,2,-79,59,-39,60,92,76,-23,-20,60,22, 
  /* [93][0][][] */ 105,49,97,41,-127,-69,26,21,-18,-59,-26,-69,25,-54,-9,-6, 
  /* [94][0][][] */ -43,-127,20,-101,12,31,-24,14,88,-19,3,46,0,44,-37,37, 
  /* [95][0][][] */ -42,-62,-24,-64,127,117,-33,47,107,46,-84,47,-40,123,-88,50, 
};
const TfArray<4, int> tensor_dimension13 = { 4, { 96,1,1,16 } };
const TfArray<96, float> quant13_scale = { 96, { 0.0017044267151504755, 0.0010506134713068604, 0.0013356232084333897, 0.0021557596046477556, 0.0016162915853783488, 0.0011171174701303244, 0.0010816708672791719, 0.0029161190614104271, 0.0021361669059842825, 0.0011493229540064931, 0.0024539127480238676, 0.0013940141070634127, 0.0019850693643093109, 0.0022135416511446238, 0.0018370546167716384, 0.0022482001222670078, 0.0026138725224882364, 0.0016427591908723116, 0.0013378543080762029, 0.0020276629365980625, 0.0014831214211881161, 0.0014023546827957034, 0.0011370008578523993, 0.002330665709450841, 0.0023303630296140909, 0.0014608518686145544, 0.00084433233132585883, 0.0019039699109271169, 0.0017967661842703819, 0.0026270702946931124, 0.0010177973890677094, 0.002231610007584095, 0.0012652064906433225, 0.0028715166263282299, 0.0017925183055922389, 0.0016989526338875294, 0.0016932981088757515, 0.0020899588707834482, 0.0024392153136432171, 0.0020761489868164062, 0.0018244644161313772, 0.0027440704870969057, 0.0033680757042020559, 0.0025733618531376123, 0.0028241369873285294, 0.0031293833162635565, 0.002001563087105751, 0.0019203458214178681, 0.0016681927954778075, 0.0019959048368036747, 0.0018645116360858083, 0.0023092813789844513, 0.0017386197578161955, 0.0029044768307358027, 0.0023131242487579584, 0.0027267909608781338, 0.0020945435389876366, 0.0015682921512052417, 0.0012286711717024446, 0.0019173003965988755, 0.0026620507705956697, 0.0018776707584038377, 0.0017047609435394406, 0.0023327914532274008, 0.0013138606445863843, 0.0014233635738492012, 0.0016846290091052651, 0.0021719199139624834, 0.0016450277762487531, 0.0024327761493623257, 0.0014010285958647728, 0.0012551466934382915, 0.001658481196500361, 0.0017115481896325946, 0.0021559689193964005, 0.0015548198716714978, 0.0018190197879448533, 0.0022260562982410192, 0.0018492131493985653, 0.0027130914386361837, 0.0025655925273895264, 0.0016088788397610188, 0.0011441843817010522, 0.001799818710424006, 0.001737789367325604, 0.0017560581909492612, 0.0022930414415895939, 0.0038606550078839064, 0.0011023008264601231, 0.0021594029385596514, 0.0023082029074430466, 0.002260187640786171, 0.00093120482051745057, 0.0019889271352440119, 0.0033230960834771395, 0.0019249602919444442, } };
const TfArray<96, int> quant13_zero = { 96, { 0,0,0,0,0,0,0,0,0,0,0,0,0,0,0,0,0,0,0,0,0,0,0,0,0,0,0,0,0,0,0,0,0,0,0,0,0,0,0,0,0,0,0,0,0,0,0,0,0,0,0,0,0,0,0,0,0,0,0,0,0,0,0,0,0,0,0,0,0,0,0,0,0,0,0,0,0,0,0,0,0,0,0,0,0,0,0,0,0,0,0,0,0,0,0,0 } };
const TfLiteAffineQuantization quant13 = { (TfLiteFloatArray*)&quant13_scale, (TfLiteIntArray*)&quant13_zero, 0 };
const MODEL_SECTION(EI_MODEL_SECTION) ALIGN(16) int32_t tensor_data14[16] = { -27139, -706, -130, -18661, 10908, -15060, 24456, -7718, 11071, -11271, 16807, 13339, -4313, -30237, -3995, 9756, };
const TfArray<1, int> tensor_dimension14 = { 1, { 16 } };
const TfArray<16, float> quant14_scale = { 16, { 8.8367160060442984e-05, 6.3562205468770117e-05, 6.3934865465853363e-05, 6.5156251366715878e-05, 7.7478282037191093e-05, 0.00014895449567120522, 5.2782674174522981e-05, 8.7737171270418912e-05, 0.00011148680641781539, 0.00010007512901211157, 8.4961815446149558e-05, 8.5726089309900999e-05, 8.6194238974712789e-05, 7.4208022851962596e-05, 6.4177045715041459e-05, 7.6934658864047378e-05, } };
const TfArray<16, int> quant14_zero = { 16, { 0,0,0,0,0,0,0,0,0,0,0,0,0,0,0,0 } };
const TfLiteAffineQuantization quant14 = { (TfLiteFloatArray*)&quant14_scale, (TfLiteIntArray*)&quant14_zero, 0 };
const MODEL_SECTION(EI_MODEL_SECTION) ALIGN(16) int8_t tensor_data15[16*1*1*96] = { 
  /* [0][0][][] */ 12,23,8,8,-13,-75,-13,-7,-23,-67,14,-1,48,-58,56,28,-86,-28,41,8,77,15,-61,12,-4,60,127,67,11,76,48,-37,11,6,10,-16,34,36,-11,-14,107,18,21,-16,-11,-2,11,-34,17,-32,95,-4,-57,1,32,31,-6,-37,13,25,-12,36,-53,-16,19,-2,65,30,15,-27,27,30,12,33,13,31,63,-35,47,17,-8,47,35,34,-51,8,-5,69,10,9,-80,-22,26,3,96,66, 
  /* [1][0][][] */ 21,41,-44,-8,9,-41,98,-81,-74,-41,-62,-48,6,-43,-10,-54,-28,-23,-36,-28,-12,-105,108,-34,-9,22,4,70,-47,12,-45,16,-33,17,10,-1,-21,48,-56,84,24,12,2,-50,58,-66,-10,25,-93,-6,53,-122,-50,39,65,55,27,21,-69,9,-50,-9,-24,-24,27,15,107,2,-47,-127,3,5,15,61,-23,34,-63,-33,107,-35,39,-21,50,-71,-27,-63,-22,8,-16,-50,39,-5,65,-56,-28,47, 
  /* [2][0][][] */ 9,-18,14,-12,58,42,-55,33,-49,49,18,-21,28,-14,25,38,37,-33,-127,2,-15,-39,-10,20,3,-20,-47,15,-42,-18,-25,74,-16,-35,-7,20,-47,37,-17,-21,76,15,4,42,7,62,16,2,-90,5,-25,18,-18,52,10,-64,36,30,44,42,-27,-5,-14,61,49,6,-35,-1,-8,-12,-8,-31,23,48,33,68,-48,-5,-28,-27,43,29,55,-7,-12,-37,-9,-54,-18,-32,-12,74,-2,-7,79,-40, 
  /* [3][0][][] */ 30,-28,-28,-127,-20,-36,104,-18,39,121,-66,-13,-1,-23,-13,62,59,44,-14,30,-49,31,30,2,-35,71,52,-15,-45,-10,-72,61,4,-11,36,-17,13,-41,-23,58,14,9,-27,27,64,-40,1,43,46,-19,29,-32,115,46,25,-1,1,-16,3,-34,-31,45,82,7,-20,-10,119,-41,-22,-16,-45,24,27,-68,11,-69,28,-40,123,3,0,-52,-27,-37,-33,-37,79,78,-47,49,-66,3,10,-74,-34,27, 
  /* [4][0][][] */ -25,75,34,18,-13,13,-35,-16,15,-30,7,-14,22,52,-17,20,-12,-44,-21,-66,34,-28,-61,22,-26,-33,-26,21,-42,127,-52,-16,4,-36,1,-30,70,55,-36,-3,25,13,16,-46,-49,-8,61,-19,28,-19,-64,-8,-71,22,48,22,4,65,-27,22,-32,-64,-20,4,63,23,-61,0,-5,-8,8,-69,-13,67,58,74,-36,19,-62,41,30,67,33,-60,49,-61,-37,-74,-44,-54,-52,-11,-5,10,42,-35, 
  /* [5][0][][] */ -1,-16,38,-22,-9,-19,-18,2,35,13,-17,-6,-21,-25,18,-12,-4,5,-46,-27,-24,10,-16,15,23,-46,66,-19,-5,43,4,73,-12,-84,21,9,-38,-23,-27,0,-42,-3,-20,10,0,18,-65,18,-18,14,50,-12,23,-65,-1,19,-22,-50,6,-28,33,21,22,49,-32,6,110,-19,-7,-24,15,21,0,23,33,5,1,-6,127,42,-24,-13,-26,34,36,62,10,94,0,-32,0,4,11,-15,-34,19, 
  /* [6][0][][] */ 31,-55,72,8,-50,112,-47,-101,-20,-72,-88,58,2,10,-37,98,19,47,11,-36,-96,-24,-85,-61,9,-56,-8,68,-124,50,-32,-35,38,84,-27,-10,-1,-47,19,-15,-63,39,32,-36,29,48,-109,-8,56,15,-90,-127,85,18,-41,-18,17,-28,29,-20,-16,-50,39,8,64,-78,-71,-65,-114,22,-13,-82,-30,-112,17,-114,97,23,-81,54,-33,78,20,-98,64,-37,-12,0,-73,80,-85,92,46,-46,65,-108, 
  /* [7][0][][] */ -8,-17,-64,69,-22,-1,42,-9,-98,4,77,50,-1,-64,-5,-26,-5,-9,7,-8,-53,-23,-37,-37,64,42,-4,75,7,32,21,28,-50,-127,26,92,-15,11,-40,5,-8,-13,11,-71,19,49,69,73,-25,40,-42,3,14,-32,36,-53,-17,37,-84,-18,55,13,-9,-42,61,-57,97,-10,-69,-26,67,4,-25,-26,-75,-22,25,-33,92,-29,-4,-14,-70,-30,40,17,-67,43,-7,8,3,30,59,-9,87,-10, 
  /* [8][0][][] */ -12,-60,9,3,-9,-13,13,-8,-14,-1,43,40,4,30,-36,-4,62,0,13,6,-19,-70,-34,-25,-20,-38,67,-5,-23,41,11,-29,-16,4,4,2,-43,-16,12,-16,3,40,19,-35,7,-10,22,-7,40,-5,51,4,1,8,-43,7,-11,108,-58,-2,-14,-64,-53,2,-73,-26,-13,17,-4,9,44,-19,-27,-127,41,-101,11,11,-53,17,-18,-2,8,59,60,-55,-38,51,-33,86,6,-19,-51,4,-8,-54, 
  /* [9][0][][] */ -33,-25,-27,13,4,21,6,41,-35,-5,57,58,-26,56,26,-47,-17,35,-18,-35,5,44,-7,10,-23,26,9,20,34,-3,18,-4,-13,-13,12,53,-16,3,29,-4,-8,-22,11,-5,15,44,3,36,-40,13,-11,30,127,12,-13,-4,15,-14,40,20,-29,-1,87,7,17,28,59,6,34,-2,-15,26,10,-123,-30,-118,-29,-17,33,-2,-3,29,0,-36,42,16,-53,-3,-8,106,43,29,51,35,-14,27, 
  /* [10][0][][] */ 21,37,18,4,-7,20,-38,-28,57,3,-44,23,24,9,-9,-61,-37,-1,16,-9,26,-17,-27,-26,7,-15,-94,50,-16,52,-4,14,20,18,-23,2,11,2,4,-3,36,-7,67,-47,-35,-9,17,20,13,4,11,-26,-30,-20,0,31,-10,2,-13,-14,-15,-43,-17,4,-10,-23,-91,-25,-57,-18,42,-11,-25,28,31,17,44,-25,-92,5,-18,34,-7,-13,9,2,-77,-127,-23,23,20,17,53,-36,27,31, 
  /* [11][0][][] */ 17,-44,-2,13,-53,34,16,8,67,-17,-20,-38,23,4,10,-9,-22,53,25,-62,13,30,14,-20,34,15,62,6,33,-50,-38,22,18,96,-96,8,14,-3,59,2,-49,44,-6,10,-45,5,-3,-11,39,-16,-28,-13,-21,16,-75,83,-27,1,-8,-27,18,4,-12,-67,-9,-45,-127,-74,-11,-32,-90,35,47,11,-6,-4,34,54,-111,-35,-15,-8,-22,-3,-19,-7,54,72,14,-45,14,6,-29,24,82,23, 
  /* [12][0][][] */ 22,32,-37,-24,14,-21,9,40,57,-40,23,-4,6,-16,-2,9,15,-37,-26,12,14,54,-1,52,-43,-33,-127,-3,78,-18,22,-1,-20,-74,67,-7,31,-16,-4,10,-7,-57,15,34,48,-1,27,-14,-82,-2,-53,88,73,-20,35,-75,7,18,-39,-36,10,52,79,2,-18,-21,28,17,107,32,18,25,4,-17,-10,-7,-39,-52,42,-71,12,-52,26,-43,7,4,6,-105,-9,34,-34,22,18,69,16,41, 
  /* [13][0][][] */ -13,22,-68,28,27,23,-4,12,33,63,-41,42,-43,-27,68,-55,17,56,59,14,-21,-39,-10,24,41,56,-20,31,9,44,53,-15,-17,66,-4,48,20,-39,-47,-62,-4,-16,28,10,60,49,-29,46,-52,41,-9,-1,-21,-48,68,35,14,-54,-11,-14,29,23,7,-34,10,90,127,39,13,6,-56,-17,41,60,-76,59,16,-79,126,-46,-18,-42,19,-3,35,53,-40,-29,-22,-26,17,50,43,14,70,60, 
  /* [14][0][][] */ -20,59,13,14,-75,-53,16,54,-69,-19,85,15,-93,-13,81,-21,-43,39,-52,38,-26,34,-91,8,-44,-8,-53,-127,6,1,25,86,-57,38,23,-8,-18,-61,-7,-50,38,-36,46,-21,-8,62,-73,38,-21,-38,90,37,-1,35,-37,33,-59,40,9,53,43,77,6,53,26,-39,0,-80,52,65,85,34,-46,38,19,10,43,-8,40,27,-64,121,4,-126,87,4,5,13,-120,-8,-26,-3,-22,19,28,30, 
  /* [15][0][][] */ 76,-38,26,40,49,11,-8,-20,9,26,-66,-19,72,60,-15,-21,-9,-1,-78,38,1,-35,8,33,60,-30,83,35,46,-29,-38,63,64,47,-7,-82,52,59,60,50,81,35,-8,7,-50,-127,41,-42,-38,-30,-13,-5,-19,-45,-28,50,-9,2,-25,11,4,-53,-46,19,29,30,-74,43,-15,-37,-9,-2,-13,-118,-53,-98,-30,13,-117,24,68,-32,43,18,-52,-10,-7,-18,43,79,19,-63,-31,-39,44,-38, 
};
const TfArray<4, int> tensor_dimension15 = { 4, { 16,1,1,96 } };
const TfArray<16, float> quant15_scale = { 16, { 0.0037556043826043606, 0.0027013937942683697, 0.0027172316331416368, 0.0027691405266523361, 0.0032928269356489182, 0.0063305660150945187, 0.0022432636469602585, 0.0037288297899067402, 0.0047381892800331116, 0.0042531928047537804, 0.0036108770873397589, 0.0036433585919439793, 0.0036632551345974207, 0.0031538410112261772, 0.0027275243774056435, 0.003269722918048501, } };
const TfArray<16, int> quant15_zero = { 16, { 0,0,0,0,0,0,0,0,0,0,0,0,0,0,0,0 } };
const TfLiteAffineQuantization quant15 = { (TfLiteFloatArray*)&quant15_scale, (TfLiteIntArray*)&quant15_zero, 0 };
const MODEL_SECTION(EI_MODEL_SECTION) ALIGN(16) int32_t tensor_data16[96] = { 7069, -1997, -6575, 6924, -2464, -539, 1645, -1085, 755, -3723, 1329, -1630, 9022, -3475, -455, -5301, -411, 416, -9775, -1071, -3537, 1429, -5860, 193, 54, 5854, -8105, -7233, 910, -3600, -889, -1040, 13913, -710, -298, 1061, -1185, 8387, 1246, 8223, -1669, 4920, -153, 7802, 2036, 713, 6675, 1684, -6093, 480, -3747, -609, -455, -3537, 1807, 1812, 1796, 2213, 956, 2058, -105, 1420, -36, 9348, 8697, -1473, 15394, 10703, -1078, -317, 7951, -1029, 15, 479, -3569, -147, 18474, 9651, 11231, 11661, 10376, -1269, 5798, 6321, -688, -2261, 11465, -4930, 9346, -779, -7055, 536, -523, 1508, 17694, -2616, };
const TfArray<1, int> tensor_dimension16 = { 1, { 96 } };
const TfArray<96, float> quant16_scale = { 96, { 0.00014327612007036805, 0.00025994970928877592, 0.00016072993457783014, 0.00018086268391925842, 0.00025709960027597845, 0.00051603495376184583, 0.00010292843944625929, 0.00018380244728177786, 0.00034720785333774984, 0.00030440240516327322, 0.00025068849208764732, 0.00020716183644253761, 0.00014567245671059936, 0.00017074121569748968, 0.00019849988166242838, 0.00019730253552552313, 0.00029863175586797297, 0.00026723576593212783, 0.00013698854309041053, 0.00045282338396646082, 0.00019187305588275194, 0.00023151419009082019, 0.00015969385276548564, 0.00019239231187384576, 0.0025425513740628958, 0.00017585008754394948, 0.00027555765700526536, 0.00013361971650738269, 0.00033447271562181413, 0.00018421105050947517, 0.00015665224054828286, 0.00033834067289717495, 9.5019422587938607e-05, 0.00041499239159747958, 0.00017791117716114968, 0.00017278625455219299, 0.00029414333403110504, 0.00012430983770173043, 0.0002285243826918304, 0.00012833766231779009, 0.00044524064287543297, 0.00020454289915505797, 0.00024276511976495385, 0.00011877030920004472, 0.00022792906383983791, 0.00021508846839424223, 0.00017014423792716116, 0.00029216412804089487, 0.00019256363157182932, 0.00027334093465469778, 0.00028863217448815703, 0.00018289436411578208, 0.00015273662575054914, 0.00027164581115357578, 0.00028522216598503292, 0.00024479982675984502, 0.00021070397633593529, 0.0002994100796058774, 0.00027711811708286405, 0.00033265369711443782, 0.00033299022470600903, 0.00025273696519434452, 0.00015429830818902701, 0.00011820570944109932, 0.00023552666243631393, 0.00047653287765569985, 0.00011460527457529679, 0.00012591297854669392, 0.00018819549586623907, 0.00027047467301599681, 0.0001370163809042424, 0.00033231283305212855, 0.00047860914492048323, 0.00017667813517618924, 0.00015090004308149219, 0.00020217327983118594, 8.1729449448175728e-05, 0.0001490143476985395, 0.00012859684647992253, 0.00014705525245517492, 0.0001023891891236417, 0.00025789198116399348, 9.9965669505763799e-05, 0.00029919808730483055, 9.9432494607754052e-05, 0.00027217934257350862, 0.00012224842794239521, 0.00030226176022551954, 0.00012926905765198171, 0.00020431501616258174, 0.00014189038483891636, 0.00017690449021756649, 0.00030731424340046942, 0.00017103653226513416, 0.00012886500917375088, 0.00025739881675690413, } };
const TfArray<96, int> quant16_zero = { 96, { 0,0,0,0,0,0,0,0,0,0,0,0,0,0,0,0,0,0,0,0,0,0,0,0,0,0,0,0,0,0,0,0,0,0,0,0,0,0,0,0,0,0,0,0,0,0,0,0,0,0,0,0,0,0,0,0,0,0,0,0,0,0,0,0,0,0,0,0,0,0,0,0,0,0,0,0,0,0,0,0,0,0,0,0,0,0,0,0,0,0,0,0,0,0,0,0 } };
const TfLiteAffineQuantization quant16 = { (TfLiteFloatArray*)&quant16_scale, (TfLiteIntArray*)&quant16_zero, 0 };
const MODEL_SECTION(EI_MODEL_SECTION) ALIGN(16) int8_t tensor_data17[1*3*3*96] = { 
  /* [0][0][][] */ -54,-3,8,-44,105,4,23,-12,0,-10,-17,-30,-33,6,-13,-26,-14,8,4,-12,6,29,17,52,-5,-7,-35,14,18,9,24,3,-3,6,-10,-40,5,-67,-42,5,-4,0,46,-40,-33,37,-60,-15,-19,3,-3,51,-65,3,26,-8,-4,-8,8,-30,-2,-21,-8,-34,-32,-17,-52,-31,-17,33,6,1,33,4,-3,5,-15,10,127,-23,-127,9,-122,-13,-35,-11,6,4,-35,-12,22,-43,-1,35,-47,12, -26,38,63,-95,-33,8,126,-57,4,-27,-42,11,-68,-1,-97,66,-9,74,77,-32,-2,127,85,127,26,13,39,78,123,46,127,-28,-127,-15,-92,-41,-18,-103,127,-50,-24,-127,-2,-69,52,-34,-51,-4,51,-4,26,127,-96,37,-84,-8,-77,-6,-3,20,-5,-127,-111,-47,-62,4,-9,-103,-8,21,-71,122,-127,-9,7,-25,-127,-86,-9,-97,-117,10,34,-60,104,74,-79,20,-127,2,33,-15,15,123,-60,-82, -42,7,6,-29,80,5,38,-28,-15,9,-16,-3,-40,5,-14,-31,-12,4,-20,-23,5,4,13,30,-8,0,1,1,14,17,18,9,-32,6,-23,56,2,-85,-29,7,-8,-4,32,-30,-33,-34,-54,-22,-6,-2,-2,37,-1,-4,1,-11,55,-18,12,-35,-12,-12,-56,-11,-40,-27,127,-56,-3,26,-3,16,31,9,4,19,-13,34,-48,-18,-83,2,-127,-25,-1,-23,1,-26,-58,-31,4,46,7,39,-46,15, 
  /* [0][1][][] */ -91,1,51,-81,48,102,-62,-8,1,-21,-27,-17,-100,26,16,59,-15,36,114,25,39,-23,123,-31,36,29,59,32,-11,8,-7,-14,-104,-12,53,-25,-6,-127,-55,-127,-19,-8,92,-42,-80,127,-102,-81,58,53,21,-38,-112,67,51,-28,15,-35,39,-22,13,-14,84,-79,-41,19,-34,-62,-15,1,-127,20,75,127,14,-68,-125,-60,-64,-51,-93,-2,-40,-56,43,28,-118,52,-85,127,103,-101,127,4,-93,1, 67,127,127,127,-127,-127,127,-61,127,127,-80,-70,-72,127,-32,127,127,-127,127,127,127,-77,116,-126,-127,-127,127,127,-127,127,-23,127,-69,127,127,-113,127,82,10,-21,127,-4,-127,-116,127,-23,127,127,127,-127,127,-98,113,127,-127,127,-127,127,-127,127,-87,105,114,-127,127,127,-17,127,-110,-127,-28,-127,6,119,127,71,6,-127,95,-127,56,127,124,127,127,66,-127,127,-84,50,-10,-33,-93,-21,-127,-28, -127,-20,45,-90,21,61,-75,8,-32,-21,-5,127,-127,23,19,49,-24,49,81,7,26,-25,91,-24,33,20,40,16,-16,2,12,-13,-103,-27,68,127,2,-91,-69,-85,-30,-30,34,-43,-77,-74,-103,-106,52,61,-4,-23,127,11,76,-48,80,-33,52,-50,-4,-32,-127,-37,-78,-6,-61,-96,-15,7,-118,7,47,-86,12,127,-89,-44,-59,-1,-91,-14,-75,-86,-3,33,-92,36,-43,-71,127,127,-45,-19,-100,-2, 
  /* [0][2][][] */ -4,-31,-13,-27,46,1,-29,23,-6,11,29,-23,46,5,-12,-42,-1,-7,-43,-18,-6,-24,25,-24,4,8,-8,22,1,0,-17,5,35,3,-12,-31,0,-5,-6,2,-18,-7,36,-4,7,8,-56,-6,-17,2,-18,-23,-10,-29,26,-13,0,-25,13,-25,-4,10,-5,-32,-29,-18,110,29,27,26,4,1,-6,-10,-6,-24,-28,14,-34,-24,-18,4,-94,-6,-8,2,40,-17,8,8,10,-28,-7,-21,-35,-2, -21,-48,27,-120,-33,2,40,127,-50,76,127,-30,-58,21,127,76,-6,-36,79,-48,-21,-47,127,16,17,2,34,28,-14,8,-83,-42,-51,-26,-100,-11,-83,-70,53,-54,-14,-115,-32,127,15,-24,-62,-7,42,-11,-12,-15,61,26,-47,-39,-56,-56,47,-61,127,22,111,-25,-80,-48,-26,-71,127,35,-39,19,26,-22,25,-21,-35,-50,-1,33,-92,-24,-91,-67,56,-127,3,9,-24,4,60,-5,19,-127,-74,127, -24,12,-4,-14,40,-3,-21,19,-18,2,11,34,23,8,-13,-37,-4,11,-9,-29,-3,-11,18,-12,-8,12,-15,7,0,5,-31,3,28,6,-9,-8,3,-16,-21,11,-24,-20,6,-4,0,-14,-61,6,-13,0,-10,-22,-6,-35,25,-11,45,-14,15,-23,0,17,-22,-8,-18,-23,-34,22,38,10,-8,2,-27,-34,-2,-8,-35,8,87,-17,4,-3,-70,-7,-13,5,49,2,20,2,-6,10,7,-23,-29,-2, 
};
const TfArray<4, int> tensor_dimension17 = { 4, { 1,3,3,96 } };
const TfArray<96, float> quant17_scale = { 96, { 0.0060892347246408463, 0.011047862470149994, 0.0068310219794511795, 0.0076866638846695423, 0.010926732793450356, 0.021931484341621399, 0.0043744584545493126, 0.0078116040676832199, 0.014756334014236927, 0.012937101535499096, 0.010654260404407978, 0.0088043780997395515, 0.0061910790391266346, 0.0072565013542771339, 0.0084362449124455452, 0.0083853574469685555, 0.012691848911345005, 0.011357519775629044, 0.0058220126666128635, 0.019244993105530739, 0.008154604583978653, 0.0098393531516194344, 0.0067869885824620724, 0.0081766732037067413, 0.10805843025445938, 0.0074736285023391247, 0.011711199767887592, 0.0056788376532495022, 0.014215090312063694, 0.0078289695084095001, 0.0066577200777828693, 0.014379478059709072, 0.0040383255109190941, 0.017637176439166069, 0.0075612249784171581, 0.0073434156365692616, 0.012501091696321964, 0.00528316805139184, 0.0097122862935066223, 0.0054543502628803253, 0.018922727555036545, 0.0086930729448795319, 0.010317517444491386, 0.0050477380864322186, 0.0096869850531220436, 0.0091412598267197609, 0.0072311297990381718, 0.012416974641382694, 0.0081839542835950851, 0.01161698903888464, 0.012266866862773895, 0.0077730105258524418, 0.0064913062378764153, 0.011544946581125259, 0.012121941894292831, 0.010403992608189583, 0.0089549189433455467, 0.012724928557872772, 0.011777519248425961, 0.014137782156467438, 0.014152084477245808, 0.010741321370005608, 0.0065576778724789619, 0.0050237425602972507, 0.010009882971644402, 0.020252646878361702, 0.0048707239329814911, 0.0053513017483055592, 0.0079983081668615341, 0.011495173908770084, 0.0058231959119439125, 0.014123295433819294, 0.020340887829661369, 0.0075088203884661198, 0.0064132516272366047, 0.0085923643782734871, 0.0034735014196485281, 0.0063331094570457935, 0.0054653659462928772, 0.0062498478218913078, 0.0043515404686331749, 0.010960408486425877, 0.004248540848493576, 0.012715918943285942, 0.0042258808389306068, 0.011567622423171997, 0.0051955580711364746, 0.012846124358475208, 0.0054939347319304943, 0.0086833881214261055, 0.0060303411446511745, 0.0075184409506618977, 0.013060855679214001, 0.0072690523229539394, 0.0054767625406384468, 0.010939449071884155, } };
const TfArray<96, int> quant17_zero = { 96, { 0,0,0,0,0,0,0,0,0,0,0,0,0,0,0,0,0,0,0,0,0,0,0,0,0,0,0,0,0,0,0,0,0,0,0,0,0,0,0,0,0,0,0,0,0,0,0,0,0,0,0,0,0,0,0,0,0,0,0,0,0,0,0,0,0,0,0,0,0,0,0,0,0,0,0,0,0,0,0,0,0,0,0,0,0,0,0,0,0,0,0,0,0,0,0,0 } };
const TfLiteAffineQuantization quant17 = { (TfLiteFloatArray*)&quant17_scale, (TfLiteIntArray*)&quant17_zero, 3 };
const MODEL_SECTION(EI_MODEL_SECTION) ALIGN(16) int32_t tensor_data18[96] = { 1857, 7746, 393, 1803, 5459, 17128, 34, 2944, 10428, -1020, 20889, 4873, 2866, 687, 6830, 452, 2626, 4427, -159, 11923, 1756, 9954, -1815, 1599, -16895, 1730, 2160, 2035, 6420, 1168, 3857, 3905, 2100, 10935, 4034, 4789, 3364, 2441, 4239, 2292, 17930, 1393, 2346, 1480, 4453, 12176, 7943, 11698, 1066, -794, 1826, 8567, 2717, -4024, 8782, 178, 2463, 14679, 1571, 2638, 3280, 10791, 4241, -149, 16348, 15855, 1606, 4668, 6887, 4564, 2567, 1606, -3885, 4236, 2359, 3256, 538, 10710, 3479, 7831, 2932, 1035, 4408, 11470, -231, 10769, 8213, 1573, -701, 2416, 1509, 14696, 3718, 4023, 7608, 5647, };
const TfArray<1, int> tensor_dimension18 = { 1, { 96 } };
const TfArray<96, float> quant18_scale = { 96, { 0.0001653507788432762, 9.3430906417779624e-05, 0.00028135627508163452, 0.00018628285033628345, 0.00012940613669343293, 5.4147043556440622e-05, 0.0002377244527451694, 0.00011255114077357575, 8.2392849435564131e-05, 0.000130821208585985, 4.1839750338112935e-05, 9.8741860711015761e-05, 0.00011652375542325899, 0.00029618869302794337, 8.9210065198130906e-05, 0.00011329796689096838, 0.00022773840464651585, 0.00014205930347088724, 0.00016096020408440381, 7.3928298661485314e-05, 0.00014548705075867474, 8.0725163570605218e-05, 0.00013206219591666013, 0.00015445415920112282, 4.5882941776653752e-05, 0.00011205215560039505, 0.00022050616098567843, 0.00018570529937278479, 0.00013284965825732797, 0.00023884077381808311, 0.00014708278467878699, 0.00013890617992728949, 0.00018305213598068804, 7.5723015470430255e-05, 0.00013366401253733784, 0.00013162801042199135, 0.00016802665777504444, 0.00015541439643129706, 0.00011273469863226637, 0.00018185804947279394, 5.0944650865858421e-05, 0.00017958413809537888, 0.00015656590403523296, 0.00012532397522591054, 9.3274953542277217e-05, 7.1114831371232867e-05, 8.1054233305621892e-05, 6.7436369135975838e-05, 0.00024231031420640647, 0.00026343137142248452, 0.00020466007117647678, 8.3568695117719471e-05, 0.00018185211229138076, 9.1173867986071855e-05, 8.6978841864038259e-05, 0.00028777497936971486, 0.00013921450590714812, 5.9138918004464358e-05, 0.0001149579111370258, 0.00011571546929189935, 0.00013357671559788287, 8.3159422501921654e-05, 0.0001512183080194518, 0.00018993401317857206, 6.0005550039932132e-05, 5.4487176385009661e-05, 0.00024479388957843184, 0.00012343596608843654, 0.00011318785982439294, 0.00010699334961827844, 0.00018184982764068991, 0.00014418625505641103, 0.00014682990149594843, 0.00014977647515479475, 0.00015931746747810394, 0.00018898560665547848, 0.00017148698680102825, 7.3822156991809607e-05, 0.0001660945126786828, 0.00010619142994983122, 0.00014010434097144753, 0.00017966663290280849, 0.00011087059101555496, 7.9746692790649831e-05, 0.0001012050561257638, 6.8072280555497855e-05, 8.53978272061795e-05, 0.00023910404706839472, 0.00020803218649234623, 0.00022720143897458911, 0.00015155479195527732, 6.1339989770203829e-05, 0.00014065251161810011, 0.00010752477101050317, 7.7921737101860344e-05, 0.0001122035100706853, } };
const TfArray<96, int> quant18_zero = { 96, { 0,0,0,0,0,0,0,0,0,0,0,0,0,0,0,0,0,0,0,0,0,0,0,0,0,0,0,0,0,0,0,0,0,0,0,0,0,0,0,0,0,0,0,0,0,0,0,0,0,0,0,0,0,0,0,0,0,0,0,0,0,0,0,0,0,0,0,0,0,0,0,0,0,0,0,0,0,0,0,0,0,0,0,0,0,0,0,0,0,0,0,0,0,0,0,0 } };
const TfLiteAffineQuantization quant18 = { (TfLiteFloatArray*)&quant18_scale, (TfLiteIntArray*)&quant18_zero, 0 };
const MODEL_SECTION(EI_MODEL_SECTION) ALIGN(16) int8_t tensor_data19[96*1*1*16] = { 
  /* [0][0][][] */ 59,-7,14,84,-121,-41,96,65,85,127,-36,59,17,1,42,78, 
  /* [1][0][][] */ -30,28,-99,0,127,106,-3,9,-34,12,-53,27,-54,78,-57,-33, 
  /* [2][0][][] */ -40,61,77,-4,66,84,8,36,40,-5,35,-20,52,-127,-7,8, 
  /* [3][0][][] */ 127,-40,32,13,28,20,-14,13,39,38,-52,-9,-36,63,-21,47, 
  /* [4][0][][] */ -73,-7,-2,20,-98,0,-70,-28,-1,25,-8,-48,-28,29,-45,127, 
  /* [5][0][][] */ -103,17,18,12,127,47,5,15,-43,19,-23,2,-73,45,-108,-29, 
  /* [6][0][][] */ -127,24,-37,25,-12,-74,74,15,14,-27,-53,44,11,7,-48,6, 
  /* [7][0][][] */ -10,109,47,-106,90,66,127,19,64,16,-2,43,81,34,-45,-11, 
  /* [8][0][][] */ -35,-37,-63,63,-50,88,-57,-79,38,-35,87,40,127,44,-108,-3, 
  /* [9][0][][] */ -23,-127,-20,77,-40,-69,-23,59,59,52,4,62,-79,11,-9,-40, 
  /* [10][0][][] */ -52,-38,-103,36,-91,127,51,-82,23,-48,66,-39,21,99,-95,73, 
  /* [11][0][][] */ -35,-101,-34,39,-6,99,38,0,21,15,46,-97,18,117,-118,127, 
  /* [12][0][][] */ -26,-92,-60,89,-83,-127,17,56,84,79,-41,108,6,-42,-15,-20, 
  /* [13][0][][] */ -76,-22,-41,-12,-16,8,32,21,-18,127,-7,-25,36,28,11,-10, 
  /* [14][0][][] */ -127,-13,-75,-59,-23,120,-7,-108,119,-71,89,11,90,-54,-102,-85, 
  /* [15][0][][] */ 6,-127,100,-54,-54,-40,4,59,19,-47,-94,-35,82,-39,-24,-52, 
  /* [16][0][][] */ -22,-36,27,-37,38,25,-21,-20,68,-127,36,-14,-8,2,-77,-95, 
  /* [17][0][][] */ -19,1,36,-54,20,-5,-41,-2,92,-49,22,67,110,-61,-15,-127, 
  /* [18][0][][] */ 76,3,-32,-111,3,-31,109,-45,31,62,-10,57,-14,61,-2,-127, 
  /* [19][0][][] */ -20,-16,-20,-60,-107,33,-5,-16,20,-32,26,-127,-2,-24,-27,-13, 
  /* [20][0][][] */ 9,70,63,-92,62,-2,-45,84,-113,-127,35,-82,-34,110,-17,-10, 
  /* [21][0][][] */ -4,-85,-127,-22,85,47,70,90,-75,-75,-2,14,74,-95,-36,31, 
  /* [22][0][][] */ 70,-17,83,-4,14,8,64,25,38,127,23,16,-3,-8,116,-12, 
  /* [23][0][][] */ -127,-66,-27,59,73,58,18,2,-6,15,5,-93,-8,65,51,127, 
  /* [24][0][][] */ 20,-20,48,41,9,-104,10,-49,25,127,-120,71,-34,-85,100,-84, 
  /* [25][0][][] */ 115,-59,97,127,45,4,-18,27,-119,79,55,-54,-12,29,68,-12, 
  /* [26][0][][] */ -19,25,14,43,-58,111,-17,34,-57,-34,-80,35,1,20,47,-127, 
  /* [27][0][][] */ 30,-5,-9,-50,-46,4,-79,11,-108,-27,-70,-47,-73,36,-21,127, 
  /* [28][0][][] */ -65,17,17,7,23,-6,-127,7,-6,-40,6,-12,9,-53,-75,-24, 
  /* [29][0][][] */ -32,-106,-28,84,-31,14,127,6,72,49,-104,59,30,-22,-47,78, 
  /* [30][0][][] */ 42,-45,-64,8,-127,21,45,-32,8,4,7,-25,-22,39,-8,72, 
  /* [31][0][][] */ -127,-16,18,104,-43,7,-59,-11,-20,-59,11,-38,-23,-60,-16,96, 
  /* [32][0][][] */ -115,-88,-77,5,-87,-60,-2,-17,127,65,-58,-50,42,53,42,-27, 
  /* [33][0][][] */ -22,5,-98,33,-125,-99,51,3,-127,15,-47,-62,-25,106,71,76, 
  /* [34][0][][] */ 47,60,6,43,-68,-50,41,8,14,-127,-26,28,-10,-2,38,86, 
  /* [35][0][][] */ 39,-8,-67,-8,-127,10,90,-24,25,58,-10,-7,17,85,40,68, 
  /* [36][0][][] */ -5,-6,-58,51,127,-18,44,60,-86,18,-82,-79,28,-17,10,25, 
  /* [37][0][][] */ -107,39,12,-60,50,-98,-41,-39,-1,-9,-25,56,65,-59,21,-127, 
  /* [38][0][][] */ 58,106,54,-60,-109,-84,-127,-75,-34,-68,44,74,-66,-105,87,-26, 
  /* [39][0][][] */ 6,-57,13,83,16,72,71,-38,-10,52,18,-20,-14,127,57,103, 
  /* [40][0][][] */ 84,44,68,77,-38,-64,-13,31,-78,73,-10,-4,-34,-9,127,3, 
  /* [41][0][][] */ -17,-11,16,59,-99,111,4,49,-59,31,-112,16,19,41,61,-127, 
  /* [42][0][][] */ 9,-97,19,-15,127,40,68,11,-38,-104,-90,-18,-12,-8,-17,39, 
  /* [43][0][][] */ -51,-91,-46,-1,127,26,5,93,-72,-69,-115,-75,109,1,-63,66, 
  /* [44][0][][] */ -26,-48,-86,-87,23,80,55,13,-28,-127,-62,61,-43,38,21,102, 
  /* [45][0][][] */ -11,-59,-79,-5,-127,79,-35,-52,52,-56,35,-54,-7,6,-40,54, 
  /* [46][0][][] */ 39,-90,3,14,76,-90,-7,74,-4,-26,34,60,-36,-44,71,-127, 
  /* [47][0][][] */ -85,-16,-26,84,-24,23,45,45,-6,127,101,101,-49,84,-9,125, 
  /* [48][0][][] */ 39,-10,-81,-90,35,-63,7,53,47,-74,2,24,-60,6,-44,-127, 
  /* [49][0][][] */ 52,40,4,31,-11,-19,53,55,-37,127,-37,35,-44,-30,73,93, 
  /* [50][0][][] */ 9,-1,17,15,-127,-22,-13,-48,53,24,20,49,-19,-62,17,-4, 
  /* [51][0][][] */ 11,-1,-22,-127,-26,102,42,-45,5,8,45,-51,58,67,-37,12, 
  /* [52][0][][] */ 31,-19,5,-83,80,-114,0,-38,39,-2,127,-58,40,0,-38,94, 
  /* [53][0][][] */ -60,-61,48,-39,-43,-127,22,-113,-11,104,-108,84,-38,-22,23,-87, 
  /* [54][0][][] */ 69,62,55,-13,-127,-60,-99,-103,-1,21,46,71,-69,-49,57,1, 
  /* [55][0][][] */ 15,13,-25,72,-40,20,33,-18,6,127,22,58,-8,-5,5,40, 
  /* [56][0][][] */ 48,-115,-62,102,-78,50,-14,61,127,23,56,58,-30,-26,55,84, 
  /* [57][0][][] */ 36,12,109,-68,87,-18,-4,-9,64,-31,12,127,60,-38,115,-51, 
  /* [58][0][][] */ 88,-76,26,-68,43,12,10,127,67,104,-9,68,58,27,95,-8, 
  /* [59][0][][] */ -55,36,31,-47,2,-98,-5,18,-3,21,-126,-111,-127,-50,83,-13, 
  /* [60][0][][] */ 42,-17,29,18,3,-21,21,-62,12,127,-11,64,-12,-31,-18,-35, 
  /* [61][0][][] */ 62,53,17,-21,-81,-127,-25,-58,-57,-12,-29,13,-62,-55,82,79, 
  /* [62][0][][] */ -20,89,-45,31,-45,127,-37,20,-63,1,-33,28,-24,34,48,-70, 
  /* [63][0][][] */ 25,-3,-69,-127,-15,-39,70,-10,-5,-93,-25,30,-38,59,27,-27, 
  /* [64][0][][] */ -44,16,13,-27,66,-64,31,95,-127,-19,-83,-37,-28,92,67,66, 
  /* [65][0][][] */ -69,-19,-49,-19,69,45,-39,-78,-127,-64,9,-32,-126,100,-56,48, 
  /* [66][0][][] */ -15,55,-14,34,-38,127,-25,19,-55,20,-28,43,-29,46,47,-80, 
  /* [67][0][][] */ 22,-35,-29,-17,17,-94,63,-92,-11,39,6,127,-53,-17,-11,-127, 
  /* [68][0][][] */ 8,-127,-20,88,-11,1,20,71,46,44,49,7,-78,31,-6,-16, 
  /* [69][0][][] */ 14,83,94,-109,65,-1,-26,92,35,118,61,103,98,-85,41,-127, 
  /* [70][0][][] */ 47,20,57,-40,110,3,-108,-56,-127,-85,-8,51,-31,72,-110,-15, 
  /* [71][0][][] */ -10,-77,45,-42,59,-24,30,25,-72,87,-127,-39,12,86,-11,33, 
  /* [72][0][][] */ 10,23,68,4,-60,-21,-101,-71,-16,69,-23,61,34,119,-127,1, 
  /* [73][0][][] */ -8,-33,-23,-44,39,-104,31,-42,64,83,110,-8,25,-14,-78,127, 
  /* [74][0][][] */ 3,2,-26,87,-86,-8,93,29,82,69,32,121,127,28,-52,7, 
  /* [75][0][][] */ -33,46,-31,26,-47,127,-17,16,-36,30,-35,40,-18,51,23,-63, 
  /* [76][0][][] */ -71,82,-56,39,-100,-10,-13,20,57,53,-48,-51,43,-58,-127,26, 
  /* [77][0][][] */ 107,119,-124,127,79,78,87,41,33,8,104,-44,79,46,75,39, 
  /* [78][0][][] */ 14,-37,-3,-58,68,-118,28,-47,51,44,127,-17,5,-17,-46,122, 
  /* [79][0][][] */ -41,58,4,20,0,-46,-33,-4,-127,-8,50,8,106,45,-76,-43, 
  /* [80][0][][] */ -68,11,91,15,71,33,-14,-127,-71,73,-63,-29,-9,-75,34,53, 
  /* [81][0][][] */ 84,65,-16,6,33,-34,76,125,-109,127,-65,-36,-39,34,123,125, 
  /* [82][0][][] */ 62,96,-17,-57,-9,-65,97,-87,30,31,-74,73,127,-17,80,-61, 
  /* [83][0][][] */ 8,-37,29,30,0,17,-22,-98,52,-25,93,17,42,-52,-41,-127, 
  /* [84][0][][] */ -127,-93,-44,-13,-7,104,98,11,98,76,112,113,66,97,-86,7, 
  /* [85][0][][] */ 114,3,110,-86,81,-5,-29,78,26,127,-76,-6,-39,55,118,13, 
  /* [86][0][][] */ -75,72,-39,-3,24,87,24,16,82,30,127,-31,-23,51,-13,-14, 
  /* [87][0][][] */ 13,-59,29,-39,44,-127,24,-31,48,-8,59,-33,34,-37,-34,65, 
  /* [88][0][][] */ -69,48,44,0,104,-31,28,28,-48,-62,99,-56,73,118,108,-127, 
  /* [89][0][][] */ -27,41,-19,25,-33,127,-15,30,-43,10,-37,19,-10,54,27,-80, 
  /* [90][0][][] */ 41,-74,10,12,127,6,46,46,-12,-95,-110,-32,-14,-17,-65,34, 
  /* [91][0][][] */ -14,74,-21,-44,-4,-71,-87,30,-74,16,-106,-127,-115,-81,-7,18, 
  /* [92][0][][] */ 58,44,62,39,-127,-86,18,14,-27,29,-23,-33,-28,-71,21,3, 
  /* [93][0][][] */ 13,-127,-104,71,-52,-69,-29,111,102,72,2,68,-56,55,-2,-37, 
  /* [94][0][][] */ 102,6,127,-25,31,-37,4,42,38,101,-3,54,5,2,114,-24, 
  /* [95][0][][] */ -65,-45,-32,-25,127,3,66,85,-47,-26,-96,-56,26,22,-66,47, 
};
const TfArray<4, int> tensor_dimension19 = { 4, { 96,1,1,16 } };
const TfArray<96, float> quant19_scale = { 96, { 0.0034335879608988762, 0.0019401373574510217, 0.0058424975723028183, 0.0038682525046169758, 0.0026871801819652319, 0.001124389236792922, 0.0049364618025720119, 0.0023371782153844833, 0.0017109268810600042, 0.0027165650390088558, 0.00086882238974794745, 0.0020504218991845846, 0.0024196715094149113, 0.006150499451905489, 0.0018524896586313844, 0.0023526863660663366, 0.0047290967777371407, 0.0029499293304979801, 0.003342415438964963, 0.0015351563924923539, 0.0030211082194000483, 0.0016762965824455023, 0.0027423347346484661, 0.0032073142938315868, 0.00095278123626485467, 0.0023268165532499552, 0.0045789158903062344, 0.003856259398162365, 0.002758686663582921, 0.0049596428871154785, 0.0030542442109435797, 0.0028844531625509262, 0.0038011651486158371, 0.0015724246622994542, 0.0027755971532315016, 0.0027333186008036137, 0.0034891539253294468, 0.0032272541429847479, 0.0023409898858517408, 0.0037763693835586309, 0.001057890010997653, 0.0037291503977030516, 0.0032511658500880003, 0.0026024121325463057, 0.00193689891602844, 0.0014767334796488285, 0.0016831299290060997, 0.0014003484975546598, 0.0050316895358264446, 0.0054702782072126865, 0.0042498642578721046, 0.0017353438306599855, 0.0037762459833174944, 0.0018932688981294632, 0.0018061571754515171, 0.0059757847338914871, 0.002890855772420764, 0.0012280478840693831, 0.0023871560115367174, 0.0024028869811445475, 0.0027737843338400126, 0.0017268451629206538, 0.0031401205342262983, 0.0039440705440938473, 0.0012460439465939999, 0.001131452270783484, 0.0050832619890570641, 0.0025632069446146488, 0.0023503999691456556, 0.0022217680234462023, 0.003776198485866189, 0.0029940966051071882, 0.0030489929486066103, 0.0031101801432669163, 0.0033083034213632345, 0.0039243763312697411, 0.0035610091872513294, 0.0015329523012042046, 0.003449031850323081, 0.0022051157429814339, 0.0029093336779624224, 0.0037308635655790567, 0.0023022808600217104, 0.00165597815066576, 0.002101571299135685, 0.0014135534875094891, 0.0017733266577124596, 0.0049651097506284714, 0.0043198876082897186, 0.0047179465182125568, 0.0031471075490117073, 0.0012737541692331433, 0.0029207165353000164, 0.0022328032646328211, 0.0016180821694433689, 0.0023299595341086388, } };
const TfArray<96, int> quant19_zero = { 96, { 0,0,0,0,0,0,0,0,0,0,0,0,0,0,0,0,0,0,0,0,0,0,0,0,0,0,0,0,0,0,0,0,0,0,0,0,0,0,0,0,0,0,0,0,0,0,0,0,0,0,0,0,0,0,0,0,0,0,0,0,0,0,0,0,0,0,0,0,0,0,0,0,0,0,0,0,0,0,0,0,0,0,0,0,0,0,0,0,0,0,0,0,0,0,0,0 } };
const TfLiteAffineQuantization quant19 = { (TfLiteFloatArray*)&quant19_scale, (TfLiteIntArray*)&quant19_zero, 0 };
const MODEL_SECTION(EI_MODEL_SECTION) ALIGN(16) int32_t tensor_data20[16] = { -4277, 11909, -21637, 791, 10553, -13784, -41781, -8844, -5734, 7313, -15818, -13961, 5480, -11437, -3788, -1097, };
const TfArray<1, int> tensor_dimension20 = { 1, { 16 } };
const TfArray<16, float> quant20_scale = { 16, { 0.00014945871953386813, 0.00011292054114164785, 0.00016943078662734479, 0.00012916536070406437, 0.000108008534880355, 0.00014023437688592821, 8.3424296462908387e-05, 0.00018808033200912178, 8.8449167378712445e-05, 8.8398897787556052e-05, 0.00016792969836387783, 0.00016557810886297375, 0.00012857257388532162, 7.3399125540163368e-05, 0.00013846442743670195, 0.00011016290955012664, } };
const TfArray<16, int> quant20_zero = { 16, { 0,0,0,0,0,0,0,0,0,0,0,0,0,0,0,0 } };
const TfLiteAffineQuantization quant20 = { (TfLiteFloatArray*)&quant20_scale, (TfLiteIntArray*)&quant20_zero, 0 };
const MODEL_SECTION(EI_MODEL_SECTION) ALIGN(16) int8_t tensor_data21[16*1*1*48] = { 
  /* [0][0][][] */ 24,41,21,-27,67,61,-37,57,-15,104,3,39,-34,28,-17,43,33,74,44,-62,-62,69,-1,46,56,40,41,47,-39,-53,-11,84,-22,10,-61,48,43,-127,-31,15,13,-24,65,-6,-3,-52,-58,-20, 
  /* [1][0][][] */ -53,0,-79,-41,9,86,-55,15,-15,-35,-42,36,60,-17,-31,-29,-27,-30,-9,16,-66,41,-108,-48,-53,-37,47,70,-23,-24,44,-38,7,-57,-34,48,11,-54,127,-38,-27,30,-51,-16,28,56,26,15, 
  /* [2][0][][] */ 2,-1,63,-30,-13,-79,25,25,108,78,-63,16,114,-51,127,87,-62,-20,-28,31,87,-80,-29,-93,13,-31,38,-69,40,38,-45,15,33,-25,65,39,-67,8,6,-24,34,31,69,-17,28,-88,99,-58, 
  /* [3][0][][] */ 42,6,-21,-26,37,111,17,-14,44,-46,23,-23,-49,1,12,46,-40,-68,42,-119,-9,-1,-21,-21,-39,85,127,65,-14,-47,25,40,63,-29,92,37,-42,-61,4,37,26,18,-9,-1,25,18,-6,-23, 
  /* [4][0][][] */ 92,-15,3,-43,83,84,56,14,72,-19,-97,31,41,-12,21,-15,-93,-114,-28,-99,-16,23,-33,-23,-86,127,-105,116,-56,-53,32,80,37,-43,20,-34,-11,17,-22,31,-45,-10,2,54,-47,106,-28,-55, 
  /* [5][0][][] */ 0,-4,-52,4,-15,52,16,-27,62,52,40,92,51,-23,29,-4,-38,127,-18,36,9,-5,-70,-13,38,-2,-61,-33,-16,33,21,-18,-39,-1,41,15,-47,6,-86,4,84,-23,21,48,-23,10,-42,33, 
  /* [6][0][][] */ 60,12,12,73,5,-24,107,-55,4,69,127,100,38,52,-46,58,39,-40,-73,92,52,-64,-37,62,-87,91,83,-8,114,51,-30,-6,93,-62,-121,-7,99,36,7,4,19,62,59,-32,68,121,38,-6, 
  /* [7][0][][] */ -99,-9,-24,25,-63,-57,21,48,74,112,-51,-68,-96,11,-21,-20,-75,98,0,116,-44,38,23,41,-21,-88,-33,-78,29,41,-5,7,-18,10,17,-18,4,-54,127,12,4,43,22,-14,50,71,-30,2, 
  /* [8][0][][] */ -10,-81,47,-64,63,-51,69,-30,-22,-116,26,7,-36,7,35,30,-5,3,-39,106,7,38,-14,29,63,-16,-61,-35,-127,-30,-58,-116,13,-58,1,89,-13,27,109,15,20,0,77,117,1,-70,-39,79, 
  /* [9][0][][] */ 20,-36,23,-61,45,84,-37,53,14,-37,-34,-18,22,-53,115,-19,11,-116,41,44,-70,37,61,-39,-29,-86,-26,81,59,76,-42,-28,-53,34,-4,127,-30,-45,-51,-27,-30,6,41,109,56,85,-70,13, 
  /* [10][0][][] */ -15,20,-25,-7,18,26,-64,-43,45,41,63,-4,-32,-11,42,-51,-57,127,-2,47,3,-14,15,26,-44,45,7,89,37,10,-31,-8,67,8,-3,25,-11,-42,-36,19,-81,-6,21,-17,15,45,31,32, 
  /* [11][0][][] */ -30,50,-21,39,31,58,0,11,20,14,-127,-70,78,16,-9,-45,3,28,-49,-49,-7,-11,114,5,47,10,-15,35,-3,23,-7,52,30,-2,-46,0,39,81,104,16,33,-28,71,-2,-55,-19,90,1, 
  /* [12][0][][] */ -64,-2,32,24,-64,-58,8,3,-35,-36,-126,21,80,-98,23,38,58,109,85,-127,-31,40,-41,-84,-3,-18,35,-31,12,15,-13,77,67,86,35,-39,-59,-28,32,-5,-33,14,66,-2,42,-13,-37,-43, 
  /* [13][0][][] */ -62,-122,-51,-97,6,25,58,4,-127,28,125,-56,58,45,117,-2,122,33,-9,-101,78,-85,113,-2,-84,13,-32,16,-40,-91,-105,19,39,-32,-69,54,26,-48,87,-79,-13,56,63,43,53,-22,105,-66, 
  /* [14][0][][] */ 70,20,-47,8,-33,12,-81,-22,-26,53,53,42,-11,-66,16,-40,54,-113,28,8,86,-58,31,-2,-8,121,-82,6,-56,-35,-94,6,127,42,92,-21,-79,6,-22,59,-16,-41,112,-25,-50,-47,-54,51, 
  /* [15][0][][] */ -66,14,36,20,89,1,0,27,16,78,-17,55,55,-14,-42,-22,11,40,0,-40,27,-41,-54,-56,50,-62,-37,59,-30,12,18,9,-66,-4,127,-5,-89,20,56,-16,-46,-24,12,-5,-38,-32,-12,10, 
};
const TfArray<4, int> tensor_dimension21 = { 4, { 16,1,1,48 } };
